%YAML:1.0
---
opencv_ml_svm:
   format: 3
   svmType: C_SVC
   kernel:
      type: LINEAR
   C: 0.10000000000000001
   term_criteria: { iterations:2000 }
   var_count: 3780
   class_count: 2
   class_labels: !!opencv-matrix
      rows: 2
      cols: 1
      dt: i
      data: [ -1, 1 ]
   sv_total: 1
   support_vectors:
      - [ 0.00362245482, 0.00612637773, 0.000735990878, -0.00214051479,
          -0.00255063665, -0.0012979561, -0.001072124, -0.000943577325,
          0.00119889353, 0.00236961083, 0.00532149896, 0.00452742958,
          -0.00248890929, -0.00424926262, -0.00361434394, -0.00252337917,
          -0.00274897972, -0.0030199897, 0.00229323492, 0.00398654724,
          0.00374614354, -0.000363245606, -0.00470101368, -0.00609265966,
          -0.00522006536, -0.00324135902, -0.00168027927, 0.00132321764,
          0.00356530002, 0.00397636928, 0.000734859204, -0.00626065303,
          -0.00652757287, -0.00328259775, -0.00279572187, 0.00132321764,
          0.00068561011, 0.00658410601, 0.00745445257, 0.00332185929,
          -0.00171703659, -0.00200500968, -0.00203615823, -0.00470231101,
          -0.00406076293, 0.00269358209, 0.007706834, 0.0022892179,
          -0.00382154039, -0.00673211319, -0.00697116461,
          -0.000849572709, -0.00171028636, 0.0026935332, 0.000834504783,
          0.00560166128, 0.00384186185, 0.00250761863, -0.00720332237,
          -0.00588726532, -0.00213363953, -0.00398874655, 0.000834504783,
          0.000834504783, 0.00768300239, 0.00160720851, -0.00287454366,
          -0.00627805991, -0.00564667396, -0.00091632409, -0.00171851134,
          0.000834504783, 0.00864051376, 0.00638613012, 0.00469196402,
          -0.00715397904, -0.00922569074, -0.00546873873,
          -0.000313926808, 0.00237958692, 0.00812793337, 0.00861341134,
          0.00865803007, 0.00398319913, -0.0103648631, -0.00950580928,
          -0.0057110507, -0.00254331646, 0.000559521082, 0.00523820147,
          0.00659473427, 0.00407596817, 0.00194893521, -0.00266573648,
          -0.0037639623, -0.00405632658, 0.00138484896, 0.00363416621,
          0.00620741863, 0.00336804427, 0.00509336358, 0.00241526868,
          -0.0048991018, -0.00970069133, -0.00335377664, -0.00478838058,
          0.000662338221, -0.000996792223, 0.00825269241, 0.00808108505,
          0.0017043394, -0.0111669609, -0.0124042723, -0.00204786751,
          -0.000314558129, 0.00116051314, 0.00536383083, 0.00884575956,
          0.00357572827, 0.00857543852, 0.00402439898, -0.0110690249,
          -9.55353171e-05, 0.00425365288, 0.00226783752, 0.00386687461,
          0.00338150794, 0.00601963699, 0.00351865427, 0.000676582858,
          -0.0129320566, -0.000930889102, -0.0024874385, 0.00323508005,
          -0.0013518309, 0.00783017278, 0.0081490092, 0.00758839399,
          0.00644002529, -0.0120463399, -0.00185611658, 0.00229021301,
          0.00486342609, 0.00508336257, 0.00641680183, 0.00177999854,
          0.00412376784, 0.000789440528, -0.00749827875, -0.00656876527,
          -0.000166079582, -0.000197391797, 0.00151171593, 0.00622803578,
          -3.77347242e-05, -0.00432831887, -0.00317627634,
          -0.00876936782, -0.00485988427, -0.0019571986, -0.000376461656,
          0.00647902535, 0.00500977831, 0.00360560906, -0.000185074605,
          -0.000637268065, -0.00738530699, -0.00574258296, 0.00373178814,
          0.000936254568, 0.00218059425, 0.00703860447, 0.00511906901,
          0.00195606169, 0.00329356315, -0.0050615673, 5.22254086e-05,
          -9.35645076e-05, 0.000411332905, 0.00558464462, 0.00715094851,
          0.00307669467, -0.00108079915, -0.00129006617, -0.00837907195,
          -0.00196997845, 0.000340257189, 0.000539095607, 0.00591613073,
          0.00657694926, 0.00433696061, -0.00400156714, -0.00604105182,
          -0.00309760519, 0.00118811242, 0.00034239731, 0.00113256846,
          0.00302158645, 0.00844627339, 0.0052550002, -0.00180794345,
          -0.0024279959, -0.00638576038, -0.000710117165,
          -0.000415704097, 0.0010090518, 0.00571688451, 0.00912543572,
          0.00310962554, -0.00182079966, -0.00698438706, -0.00655171042,
          0.00111497124, 0.000695878, 0.00164567551, 0.00562647311,
          0.00718483003, 0.00201167935, -0.00545731466, -0.0088235056,
          -0.00940223038, -0.000984132756, -0.000232114719,
          0.00143930269, 0.00365553284, 0.0070886123, 0.00677017216,
          0.00230194023, -0.0020610271, -0.00507370289, -0.00188197207,
          0.000707441301, 0.00252500316, 0.00458438927, 0.00870555732,
          0.00313776056, -0.00316500454, -0.00968073122, -0.0080252178,
          -0.00100255385, -0.000986558269, 0.00140003976, 0.00551907439,
          0.00396189466, 0.00570919877, 0.00195852038, 0.000338293699,
          -0.00385850179, -0.000949201349, 0.00199071062, 0.00460160663,
          0.00490015326, 0.00612249039, 0.00586007722, 0.00571817067,
          0.00192106399, -0.00579947094, -0.00321116345, -0.0014769698,
          0.00187007722, 0.00322415004, 0.00522998674, 0.00501633529,
          0.00537730101, -0.00107040931, -0.00515731284, -0.00138853467,
          0.00169845868, 0.00494312542, 0.00685624825, -0.000737007649,
          0.00293245562, -0.00070556649, -0.00518069277, -0.008223176,
          -0.00875701196, -0.00446067145, -0.000223696348,
          0.000757435802, -0.000781541516, -0.000781541516,
          0.00316842832, -0.00488112727, -0.00607429678, -0.00190295756,
          -0.001602515, -0.000554434489, 0.0015203316, 0.00276249321,
          -0.00196588715, 0.000508777739, -0.000122044803,
          -0.00254119583, -0.000489388942, 0.00436023762, 0.00672818581,
          0.00614900282, 0.00106822373, 0.000140624601, 0.00138890138,
          0.00409523118, 0.00166484294, 0.00120778836, 0.00355297257,
          0.0023463876, -0.000551768637, -0.00258501014, -0.00606028689,
          0.000371462433, -0.00413040724, -0.00311617739, 4.06698236e-05,
          0.00358316489, 0.00413211156, 0.000230723803, -0.00258501014,
          -0.00308654387, 0.00146108493, 0.00385175459, 0.00192934717,
          0.000412153924, 0.00222868822, -0.00274467957, -0.00258501014,
          0.00637406297, 0.00567694427, 0.0023998064, 0.00430663023,
          0.0029938356, 0.00201646751, 0.00281096739, 0.000930532115,
          0.00124735304, 0.00281157834, 0.00485149212, 0.00280731218,
          0.00114785915, -0.00571363838, -0.000117595351, -0.00198386447,
          0.0024852294, -0.000700174016, -0.000700174016, 0.00729452912,
          0.00315209874, 0.00609190343, 0.00461801142, 0.00132304907,
          -0.00369052822, -0.00728993956, -0.00311913295, -0.00135353277,
          0.00484945718, 0.000727112812, 0.00379265985, -0.00497124484,
          -0.0052169878, -0.00489524845, -0.00845989864, -0.00581993675,
          0.000152180903, 0.00613381108, 0.00409814017, 0.000928657595,
          -0.00862325262, -0.000198982016, -0.0015273958, 0.00680825394,
          -0.00194916315, 0.00760908518, 0.00751244277, 0.00509643834,
          0.00188862521, -0.00457500387, 0.000924834516, 0.00196904363,
          0.00897083152, 0.00787135493, 3.36807898e-05, 0.00433939602,
          0.00124205707, -0.00476476923, -0.00717441691, -0.0038545148,
          -0.00129369576, -0.00471516186, -0.00705683837, 0.00299780327,
          0.000984479208, 0.00025693237, -0.00667443406, -0.00532120932,
          0.00181791198, 0.0014161343, 0.00457555382, 0.00424006954,
          0.00651253713, 0.00400934415, -0.000159130097, -0.00195034151,
          -0.00396425091, 0.00154108298, 0.00241139578, 0.00345557486,
          0.00583371893, 0.0069876276, 0.00733793341, 0.00603349414,
          0.0017754134, -0.00166306132, 0.00078171381, -0.000791625003,
          -0.00127258734, 0.00360115129, -0.00199106266, 0.000149074782,
          -0.00355490251, -0.00640312769, -0.00552607328, 0.00080608204,
          -0.00240471237, 0.00155306829, -0.0003900335, 0.00143487495,
          0.00811739825, -0.00220239256, -0.00691959634, -0.00677849678,
          -0.000996472081, -0.00409860816, -0.00415945845,
          -0.00366170262, 0.00881760754, 0.00764071429, 0.00293870037,
          -0.00520962942, -0.00225099223, -0.0002737912, -0.000773352047,
          -0.000341795036, 0.00565025862, 0.00891019404, 0.00625278102,
          -0.00106993807, -0.006284039, 0.000402990554, 0.00190346676,
          0.000338992308, 0.000773164677, 0.00818458851, 0.00401823455,
          0.00501092337, -0.00657048635, -0.00906187203, -0.00593396742,
          -0.000584280759, -0.00130674429, -0.000728574756,
          0.00250296621, -0.00256787101, -0.00677781086, -0.00953138713,
          -0.0061680181, 0.00465194695, 0.00428791856, 0.00155983248,
          0.00290940376, 0.00576436333, 0.00230864924, 0.000445773214,
          -0.00345946755, -0.00672879582, -0.001041902, 0.000552431156,
          0.00104462414, 0.00059092528, 0.00223457301, 0.000628374226,
          0.00117784354, 0.0018650532, 0.000235786938, 0.000226943768,
          0.00255829608, 0.00676719099, 0.00564857805, 0.0032446098,
          -0.00557162613, -0.00686303573, -0.00408724369,
          -0.000792457373, 0.00491353543, 0.00405017007, 0.00210988568,
          -0.000371753355, -0.00414514495, -0.000751744898,
          -0.000751744898, -0.000751744898, -0.0039513791,
          -0.000617199694, 0.0057660169, 0.00638666796, 0.00473501813,
          -0.000845512142, -1.17105537e-05, 0.0038664632,
          -0.000626012974, -5.21085858e-05, -0.00560300704,
          -0.00286031771, -3.21533516e-05, 0.000596460421, 0.0018451818,
          0.000337364152, 0.000772289059, 0.00269450783, 0.000665373402,
          -1.17105537e-05, 0.000641174789, 0.000539318833,
          -0.000809464429, 0.000700484787, -0.00165016507, 0.00494670449,
          0.00172465236, 0.00285119936, -0.00321677374, -0.0017314665,
          -0.00394084211, -0.00221965439, -0.00576266972, 0.0016302974,
          0.00463179452, 0.00065478828, 0.00310341921, -0.000501010159,
          -0.00193208258, -1.17105537e-05, -0.00164356269,
          -0.000411929417, -0.00162905909, -0.00112806133, 0.00483157299,
          0.00348761026, 0.000598096813, -0.00101064669, 0.001195397,
          0.00137671805, 0.00273926789, -0.00112806133, 0.0021190017,
          0.00282377633, 0.00145105994, -0.00135340611, -0.00194253691,
          -0.000389769441, -0.00431719143, -0.00112806133, 0.00126728043,
          0.00695008133, 0.00388919585, 0.00317097642, -0.00260979985,
          -0.00491079502, -0.00404093089, -0.003363939, -3.01518617e-06,
          -0.00305054127, 0.00679444708, 0.00573651213, 0.00324361958,
          0.000192233812, -0.000202560201, -0.000754046487,
          -0.00574832037, -0.00325408694, -0.000591735996, 0.006796645,
          0.0033910058, 0.00255665462, 0.00281932601, 0.0016227751,
          -0.0014586742, -0.00620452315, -0.00121918519, -0.000658790697,
          0.00470420811, 0.000279613683, 0.00230884599, -0.000207200792,
          -0.00268729869, -0.00380328158, -0.00752814347, -0.00530050974,
          0.00170321332, 0.00773066189, 0.00717770122, 0.00376448408,
          -1.97367863e-05, 0.00293804752, 0.00313419569, -0.00229758373,
          -0.000591735996, -4.7057285e-05, 0.00404408574, 0.00100877753,
          -0.00282766973, -0.00623470964, -0.00162266614, 1.11652807e-05,
          -0.00352547667, -0.0044157519, 0.00294350181, 0.0051906174,
          -9.57951415e-05, -0.00014626651, -0.00248247245, -0.0019967691,
          -6.15124954e-05, -0.00553838536, -0.00173697353, 0.00723639829,
          0.00460793171, 0.000891194562, -0.00383778894, -0.00382134458,
          0.00246324763, 0.00531024486, 0.0065830946, 0.00627944246,
          0.0021759253, 0.0027876466, -0.000289077841, -0.0035113492,
          -0.00361324241, -0.00207004906, -0.00015512458, -0.00401328318,
          -0.00516654179, 0.00346224662, 0.00192526542, -0.00160521932,
          -0.00534764072, 0.000642778759, -0.00035577055, 0.00112931151,
          0.00147047313, 0.00281966175, 0.00167596515, 0.00164871081,
          -0.000463447126, -0.00311740348, -0.00262958184, 0.00275608036,
          0.00147419202, 0.00599394832, 0.00364131387, 0.00508461008,
          0.00674385251, -0.00360104092, -0.00364001724, 0.000809352961,
          0.00234042713, 0.00058103248, 0.00113167497, 0.00166149787,
          0.00131528545, -0.000153573492, -0.00223666849, -0.00367141492,
          -0.00539733609, -0.00212804414, -0.00395041332, 0.000199558388,
          0.00281373644, 0.00771612627, 0.00226603448, -0.00193063007,
          -0.00193063007, -0.00160714285, 0.0002034278, -0.00101826887,
          -0.00066531921, 0.00366323325, 0.00124657433, -0.000587116345,
          -0.0113534164, -0.0114708589, -0.00717973942, -0.00149474083,
          -0.000329597911, -0.000150376101, 0.000629064336,
          6.97898358e-05, -0.00315819425, -0.00952121895, -0.0084025953,
          0.00448955642, 2.60818797e-05, 0.00135008048, 0.00362103991,
          0.000845818955, 0.00802914426, 0.00649350649, -0.0002395146,
          -0.00499002449, -0.00273666461, -0.0010716801, -0.00041265969,
          -0.000579756277, 0.00122732879, 0.00881647505, 0.00990385003,
          0.00599446194, 0.00231282483, 0.000866084418, 0.00136645127,
          0.00133252051, 0.00477374531, 0.0048063607, -0.00323227001,
          -0.00466750842, -0.000835950545, 0.00230953679, 0.0037714236,
          0.00169532397, 1.73406272e-06, 0.00066385651, -0.00472677452,
          -0.00111604959, -0.00111604959, -0.00111604959, -0.00167868787,
          -0.00257877493, 0.00351837976, 0.0011000497, 0.000166420767,
          -0.00160104781, 0.000748914143, 0.00568026165, 0.00414167764,
          0.00123089994, -0.0014929903, 0.0017786416, 0.00281361816,
          0.00610509701, -8.17909022e-05, -0.00111604959, -0.00111604959,
          -0.00111604959, 0.00180360209, -0.00153799541, 0.00168338185,
          0.00335157034, 0.00200444041, -0.000480304996, 0.000659997808,
          0.0068518375, 0.00679622963, 0.00484600943, 0.00338336034,
          0.00100213964, -0.00364598818, -0.00104510551, -0.00263406266,
          0.00206531328, 0.00663000857, 0.00295193284, -0.000195369765,
          -0.000215924592, -0.000215924592, -0.000215924592,
          0.00211574417, 0.000744109391, 0.00148189743, 0.00124607724,
          0.00292849774, -0.000280955341, -0.00172633713, -0.00408048974,
          -0.00758126238, -0.00302660139, -0.00202513929, 0.000740082236,
          0.00323821348, 0.00583649054, 0.000115972769, -0.00506424066,
          -0.00375989964, -0.00680778315, -0.0018807149, -0.00148410606,
          0.00479912618, 0.00708203577, 0.00321136648, -0.000878499297,
          -0.00214556814, 0.00144745095, 0.000968097418, 0.0022824714,
          0.00275047752, 0.00211840984, 0.00817568414, 0.00749048032,
          0.00368400989, 0.000621319748, 0.00798901916, 0.0010205427,
          -0.00238661538, 0.000528510776, -0.00239545177, 0.00101558608,
          0.00157853647, -0.00107997202, -0.00673520984, -0.000246743613,
          -0.00371118798, -0.00354297319, -0.00570863299, -0.00278059999,
          -0.000102583886, -0.000398524775, -0.00412305072,
          -0.0041539059, 0.00326136011, -0.00243240758, -0.00354745216,
          -0.00191389467, 0.00450778287, 0.00855550449, 0.00826802012,
          0.00556018157, 0.00400574598, 0.00447586039, 0.00264670118,
          -0.00262574665, 0.000827194133, 0.00291720848, 0.00319172163,
          0.00549550122, -0.000555210281, -0.00408551842, -0.00251508155,
          0.00287147635, -0.00150031049, -0.00410468038, -0.000529409386,
          0.00198928011, 0.00106074032, -0.00442092214, -0.00456712767,
          -0.000313403696, -0.00333918328, -0.00338542811,
          -0.00239019445, -0.0022388529, -0.00447468041, 0.000626017514,
          -0.00168146042, -0.00401429133, -0.00364398188,
          -0.000329467293, -0.00494017918, -0.00402263878,
          -0.00229639164, -0.00609986717, -0.00473475875, -0.00707210694,
          -0.00609233696, -0.00598281762, -0.0006656677, -0.00151908153,
          -0.00797666702, 0.00315055088, 0.00511242962, -0.000537265267,
          -0.00356141245, -0.00109003752, -0.000924358668,
          -0.000782997929, 5.51823941e-05, 0.00114848628, -0.00285743363,
          -0.00286955852, 0.004568025, -0.00300530088, -0.00585811958,
          -0.00757806143, -0.00117520103, -0.00547371758, -0.00816480257,
          0.0132442117, 0.012993101, 0.0109736826, 0.00853359234,
          0.00342254108, 0.00140539394, 0.00202532299, 0.00276356097,
          0.00496962806, 0.00204234081, 0.00167736958, -0.00745483767,
          -0.00932511501, -0.00710912794, -0.0022615802, -0.00305051426,
          -0.000829739613, 0.00122142397, 0.00624943385, 0.0039199451,
          -0.000407788495, -0.00586143462, -0.00183579873,
          -0.000803375675, -0.00125786697, -0.000731850683,
          0.00174842519, 0.00579106016, 0.00398056349, -0.00239523337,
          -0.000935225107, -0.00301924883, 0.00311632641, 0.00357459928,
          0.00380903599, 0.00459899381, 0.00750570791, -0.000198826063,
          -0.000407788495, -0.000407788495, 0.00183264981, 0.00351534947,
          0.00388745894, 0.00266985642, 0.00399872893, 0.00145991368,
          0.000966872321, 0.000109643435, -0.0025606167, -0.00578063214,
          -0.000246724609, -0.000956247794, -0.00121593999,
          -0.00141342811, 0.00171402982, 0.00441151951, 0.00315878331,
          -0.000371010043, -0.00359962694, 0.00135437702,
          -0.000849099946, 0.000717367453, -0.00125546148, 0.00273371465,
          0.00235363888, 0.000109643435, 0.00211483194, -0.00324961846,
          6.90964907e-06, -0.000857807579, -0.0021176103, -0.00215442991,
          -0.00103178306, 0.000109643435, 0.000109643435, 3.02075987e-05,
          -0.00418405421, 0.0011184453, -0.00180390244, -0.000407623535,
          0.000784284784, 0.00359956571, 0.00299335551, -0.000997472322,
          -0.0041007176, -0.00180528429, 0.00303410739, 0.00324560935,
          0.00411358243, 0.00383371534, 0.000185326833, -0.0050521316,
          -0.00214945013, -0.0023848936, 0.00154909852, 2.3976796e-05,
          0.0039435057, 0.00241141464, 0.000892002718, 0.000146446109,
          -0.00214945013, -0.00214945013, -0.0036114587, -0.00136988366,
          0.00453419518, 0.00359227019, 0.00479419436, 0.00410976168,
          -0.00147100887, -0.00490039168, -0.00214945013, -0.00409939606,
          0.000955814845, 0.0064595351, 0.00637541665, 0.00647299923,
          0.000475655106, 0.00290249358, 0.0029870877, 0.00329083181,
          0.00150258793, 0.000195047149, -0.00121663255, -0.00698634842,
          -0.000549223274, 0.001418125, 0.00193632231, 0.00704979198,
          0.00774418935, 0.00342430407, -0.00169149204, -0.00311001763,
          -0.00593476603, -0.00274046557, -0.000411663699, 0.00470050797,
          0.0065207337, 0.000728863175, -0.00677698245, 0.000195047149,
          -0.00366027211, -0.00678624259, -0.000819861481, 0.00365719572,
          0.00214130734, 0.00623907894, 0.00128596462, -0.00541472295,
          -0.000365538755, -0.00631580083, -0.00328125991,
          -0.00350085762, 0.00193620322, -0.00218865625, 0.00348926964,
          0.00594990607, 0.00366826495, -0.000662861799, -0.00146642071,
          -0.00235627987, -0.00356158335, -0.00492965803, 0.000180064395,
          -0.00222763396, -0.00104229723, 0.000489777594, -0.00214599771,
          -0.00491179386, -0.00067868008, 0.00166035385, -0.00205313321,
          0.00477544265, 0.00412582699, 0.000699317083, 0.00318560051,
          0.00237012655, -0.00227545924, 0.000491414103, 0.000635841396,
          0.00426222896, 0.00391453924, 0.00568000693, 0.000251285412,
          -0.00110894896, -0.00120213174, -0.00366066, -0.000626462803,
          -0.00221412629, 0.00029927952, -0.000262124988, -0.0035319922,
          -0.00165191293, -0.00387431192, -0.00604969077, -0.00494633103,
          -0.00286640832, -0.00160559663, -0.00318494136,
          -0.000531832571, 0.00424804492, 0.00495350501, 0.00400041137,
          -0.00334371161, -0.00498940563, -0.0022383274, -0.00636398001,
          -0.00296279322, 0.00151972135, 0.0037961523, 0.00287737348,
          -0.00147457037, -0.00521655008, -0.00223802216, -0.00281797349,
          -0.00704248808, -0.00332227792, 0.00457955245, 0.00846653059,
          0.00660571596, 0.0054507195, 0.00194583682, 0.00320492475,
          0.00222745142, -0.00262470311, -0.0041788891, -0.00474127987,
          0.00146912946, 0.00451076636, -0.00365359755, -0.00789379794,
          -0.00928641483, -0.0037095712, -0.00838566851, -0.00785506517,
          0.00811522175, 0.00933578145, 0.0070643872, 0.000187035563,
          -0.0059373104, -0.00263669947, -0.000488320598, 0.000890902884,
          0.00117418158, 0.000204766911, 0.00652065501, 0.00300658378,
          -5.75855229e-05, -0.000366933324, -0.00542786717,
          -0.00126854458, -0.00399396615, -0.0075099254, 0.00896415859,
          0.008623817, 0.00546909077, -0.000838424952, -0.00664837006,
          -0.000317475933, 0.000801416929, 0.00252953963, 0.00332340295,
          0.00370210176, -0.000384082523, -0.00078264164, -0.00251671183,
          -0.00599181838, 0.00138078711, 0.00270848279, 0.00278520142,
          0.00209257775, 0.00503021199, -0.00149483921, -0.00078264164,
          0.00199738704, -0.00367295393, 0.00165636605, 0.00411539804,
          0.00252402527, 0.0017163289, 0.00177782809, 0.000587154762,
          -0.00078264164, -0.00320042227, -0.00767313549, 0.00235139532,
          0.000619544298, 0.00268484792, 0.000903157867, 0.00350622041,
          0.000346074463, -0.00078264164, -0.000396992284,
          -0.00462042494, 0.00174244703, 0.00359376031, 0.004172849,
          0.000735463051, 0.00411275821, 0.00338213565, 0.00492011011,
          0.00562588032, -0.0035798524, -0.00146611652, 0.00103924563,
          0.000530685124, 0.00106456201, -0.00290102907, -0.000520595466,
          -0.000969450863, -0.000520595466, -0.00391198089,
          0.000855732942, 0.00119491701, -0.00020781644, 0.0032120212,
          0.00064019853, -0.000520595466, 0.000456781971,
          -0.000520595466, -0.00533330766, -0.00103655772, 0.00289075612,
          0.00433548866, 0.00162093609, -0.00320470566, -0.0030337749,
          -0.000520595466, -0.000520595466, -0.000520595466,
          0.00212302478, 0.00282077957, 0.00281544728, 0.000429220789,
          -0.00486080255, -0.00387351727, -0.000660692574,
          -0.000256577099, 0.00213038712, 0.00399704603, 0.00240754522,
          0.00207712338, 0.00227376237, -0.00105679757, -0.00339021999,
          -0.00117390987, -0.00150323985, 0.00220786664, 0.0079683857,
          0.00411098264, 0.00493982947, 0.000785667798, -0.00572748575,
          -0.00514177466, -0.00070452661, 0.00515201595, 0.00141297572,
          0.00585044222, 0.00028705271, -0.000645946537, -0.00180880597,
          -0.0026335672, -6.05390596e-05, -0.000132290967,
          -0.000256577099, -0.000256577099, 0.00697431527,
          -0.00106211321, -0.000853159174, -0.00287968549,
          -0.000654088217, 0.00142108265, -0.000617021171,
          -0.00802198611, -0.00758982915, -0.00460496591, -0.00257798936,
          -0.00362287113, -0.00221757335, 0.00503581949, 0.00426206738,
          -6.58062709e-05, -0.00682746246, -0.00790725742,
          -0.00627946341, -0.00432570651, -0.00768329203, -0.00570373423,
          0.00381256314, 0.00739427842, 0.00987655576, 0.00265282439,
          -0.00493989, -0.00149406807, -9.20349557e-05, 6.2043975e-05,
          -0.0010841419, 0.00463669281, 0.00720424252, 0.0108685652,
          0.00463669281, -0.00399811519, -0.00511124404, -0.00427373219,
          -0.00620549964, -0.00370017742, 0.00572710764, 0.00562094525,
          -0.000409064844, -0.00147255661, -0.00358302239,
          -0.00294210366, -0.00245725224, -0.00356239686, -0.00283094496,
          0.00343420426, 0.00277498225, -0.00327279326, -0.00647610007,
          -0.00407927763, -0.00286968728, -0.00186005142, -0.00609720172,
          -0.00230324175, 0.00305526378, 0.00585156586, 0.00729952753,
          0.0040419423, -0.00457727397, -0.00459462404, -0.00715715205,
          -0.00560388388, -0.00313515519, 0.00240286998, 0.00363202044,
          0.00371236214, -0.00137971889, -0.000689136272, -0.0025066107,
          -0.00528415386, -0.00230542105, 0.000694780378,
          -0.000965383719, 0.0013611461, -0.00242090761, -0.00641378853,
          -0.00572838215, -0.00148671912, -0.00158415502, -0.0066164569,
          -0.00282926392, 0.00106374756, 0.00497192098, 0.00204998837,
          -0.00316704484, 4.13275593e-05, -0.00199344242, 0.0013609475,
          -0.00459545199, -0.00418730639, 0.00564668095, 0.0070008859,
          0.00041163835, -0.00482291495, -0.002943272, -0.00149582757,
          -0.00165985571, 0.00258537312, 0.00351353432, 0.00726750866,
          0.00850480702, 0.00525780302, -0.00496646576, -0.00310232094,
          -0.00378899463, -0.00110107858, 0.000500308059, 0.00273452699,
          0.000601914304, 0.00537973316, 7.01242607e-05, -0.00465198886,
          -0.00143186236, -0.00344431191, 0.0019216428, -0.00551875168,
          -0.00622929353, 0.00405557686, 0.00633063307, 0.00168809551,
          -0.000273869315, -0.00287870411, 0.0013331247, 0.00242989534,
          0.00241102558, 0.00277844351, 0.000865658745, 0.00337967882,
          0.000499981514, -0.00559985219, -0.00302654365, -0.00435338449,
          -0.00100269902, -0.00340340333, -0.0026211557, 4.31221451e-05,
          0.00475153513, 0.0021794783, 0.00362367881, 0.00572096603,
          0.00434426265, 0.00325883785, 0.00529327057, 0.00115748623,
          -0.00127914944, 0.00184323161, 0.000724047772, 0.0013020942,
          -0.00234274752, 0.00151271978, -0.000616707024, 0.000411187386,
          -0.000402301433, -0.00166560046, 0.000724047772,
          0.000724047772, -0.00156521972, -0.00159797771, 0.00131265156,
          0.00166830642, 0.000854008598, -0.00167203404, -0.00583312241,
          0.00086504285, 0.000724047772, 0.00339150196, 0.00304538244,
          0.00338065764, -0.00141820044, -0.000483534677, -0.00481673377,
          -0.00506774429, 0.000724047772, 0.000724047772, 0.00486802822,
          -0.001952625, 0.000819585926, -0.00277031958, -0.00154746557,
          -0.00444987696, -0.00256527169, 0.0014142025, 0.0014142025,
          5.80730848e-05, -0.00233810488, 0.000885098358, 0.00198405236,
          0.00278680562, 0.000748353661, -0.00036580392, -0.00319961156,
          0.00583183346, 0.00378230005, 0.0014142025, 0.00137338252,
          -0.00191824639, 0.00262553478, 0.00302658533, -0.00429687742,
          0.0014142025, 0.00516849291, 0.000494477281, -0.0064311591,
          -0.00175959489, -0.00303507457, -0.00228674058, -0.0029995488,
          -0.000548452546, 0.00146369985, 0.00590605848, -0.0013979316,
          -0.00323116197, -0.00579396449, -0.0081004044, -0.00369633245,
          -0.000316182413, -0.0010703142, -0.00271277991, 0.0012131714,
          0.0082665626, 0.00140403234, 0.00290454295, -0.00185361982,
          -0.00180428964, -0.00154163805, 0.000552288839, 0.00508945156,
          0.00147095195, -0.00294067874, -0.00215235818, 0.00184487132,
          -0.000981842401, -0.00144982873, -0.000832523277,
          -0.0044549033, -0.00122514844, 0.000869014708, 0.000955673517,
          0.00531418528, 0.000282466732, -0.00411240617, -0.00302206702,
          -0.00331325666, -0.00418507261, 0.00309843314, 0.00704686018,
          -0.00485222461, -0.00215235818, 0.0012031215, -0.000196201596,
          0.000827493903, -0.000117893185, 0.0030880759, 0.00562992832,
          0.00595214777, 0.0035422917, -0.00415901141, -0.00174692157,
          0.00253501581, 0.00262978743, 0.000859289954, -0.00559723191,
          0.00406186003, 0.00363647821, -0.00176456652, -0.00539041637,
          -0.00415823702, -0.00339621422, -0.00407447992, -0.00338420412,
          0.00504158018, 0.00802489277, 0.0083345715, 0.00807376765,
          0.003627019, 0.00163357216, 0.00490258401, 0.00307768164,
          0.00222785235, 0.00265683001, 0.00235270546, 0.00164485653,
          0.000495108718, -0.00360248098, -0.00268535502, -0.00216345955,
          -0.00216345955, 0.00339557347, -0.00250085071, 0.00521231629,
          0.00491769705, 0.0045259702, -0.00090038561, -0.00171498803,
          -0.00556026585, -0.00150940509, -0.00358798448, 0.00249362458,
          0.00217404752, 0.00376406242, 0.000186012578, -0.00191009068,
          -0.00119954359, -0.00578270247, -0.000447070663,
          -0.00387687515, -0.000325671077, 0.00286326953, 0.00218754052,
          -0.000106495099, -6.01348211e-06, 0.000215555265,
          -0.00165418268, -0.00132995576, 0.00125331862, -0.00196686853,
          0.00297980732, 0.00355146523, -0.00135687762, -0.0021761253,
          -0.000649547845, -0.00333346939, -0.00224211253,
          -0.000152417924, 0.00514835399, 0.00335251866, 0.00053147896,
          -0.00562769594, -0.00737509318, -0.0035684302, -0.00238700653,
          0.000342990155, 0.00151594868, 0.00457728514, 0.006577258,
          0.00326126115, -0.00479183579, -0.00717222551, -0.00573728327,
          -0.00210587378, -0.00384502509, 0.00236314698, 0.00328448205,
          0.00410546409, 0.00632631825, -0.00389904552, -0.00716492767,
          -0.0062557552, -0.00205313228, -0.00186912075, 0.00154394587,
          0.00134720013, 0.00590964826, 0.00618319353, -0.00146482082,
          -0.0058339457, -0.00345475506, 0.000270643854, -0.00313863135,
          0.000730198633, -0.00202219258, -6.32533192e-05,
          -0.00145098718, -0.00340384082, -0.00345387519, -0.00678161765,
          -0.00328129041, -0.00533049461, -0.00320290448, 0.00131420954,
          0.00240963441, 8.36848558e-05, 0.00443946803, 0.00666772481,
          0.00281278277, 0.00170661986, 0.00377080915, 0.000207187288,
          -0.000759788032, 0.00177508523, 0.00138451904, -0.000759788032,
          -0.00335479551, -0.00394091755, -0.00137909537, -0.00413853209,
          -0.00224286155, 0.00508816168, 0.00542755658, 0.00377447787,
          0.00289000873, 0.00344822207, 0.00243405509, 0.000460463198,
          0.00115003111, 0.00302018342, -0.000224211501, 0.00104953244,
          0.00104953244, 0.00104953244, 0.00500261458, 0.00434696348,
          -0.00206784834, 0.000232555831, -0.00642483775, -0.00125548674,
          0.00444650277, 0.00280734128, 0.00250519044, -0.00132619264,
          -0.000550861645, -0.00741828885, -0.00282123755,
          -0.00647950219, 0.00323892292, 0.00418713456, -0.000131251654,
          -0.000475235109, 0.00100812945, 0.00281214458, -0.00454747956,
          -0.000620287785, -0.0021623543, -0.00255369395, 0.00297871558,
          0.00114774355, -0.00109760708, 0.000330054638, 0.00135518075,
          -0.00767326914, -0.00349132111, -0.00509728026, 0.000337126578,
          0.00639104052, 0.00569163775, 0.00032358343, -0.00407034019,
          -0.0027884359, -0.00608951412, -0.00308263768, -0.00320200738,
          -0.000163769844, 0.00490640989, 0.00431167381, 0.00025366692,
          -0.00262026163, -0.00609547179, -0.00592190493, -0.00376161328,
          -0.0038733331, -0.00244600768, 0.00179647945, 0.00491568679,
          0.00334482407, 0.0015255108, 0.0007251731, -0.00664706482,
          -0.00362688815, -0.00388492621, -0.000898082391, 0.00404153112,
          0.00608087657, 0.00557547202, 0.0012376766, -0.000742771139,
          -0.0040215184, -0.00156079954, -0.00320861978, -0.00208771718,
          0.00142685696, 0.00262226909, 0.00296843611, 0.00481684413,
          0.00163190113, -0.0021260397, -0.00163432956, -0.00378844026,
          -0.00211194577, 0.00755682355, 0.00701941131, -0.00363321393,
          -0.00954451133, 0.00349951489, -0.00201705145, 0.000870640797,
          -0.00176796003, -0.000602386077, 0.00462059351, 0.00596927525,
          0.00578869972, 0.00490788929, 0.00259498251, -0.00188258896,
          0.000142885925, -0.00272545544, 0.00144955097, 0.00771478517,
          0.00698297564, -0.00209510932, -0.00954451133, 0.00237052678,
          -0.00375106721, 0.00548293395, -2.26934208e-05, 0.00610316731,
          0.00748995133, 0.00830692239, 0.00607787492, 0.0027004627,
          0.00193655503, 0.0019965379, 0.000567936746, 0.00268095336,
          0.00627160631, 0.007271796, 0.00589908706, 0.00242395094,
          0.00022757097, -0.000635887031, -0.00798078906, -0.00156420539,
          0.0027600606, -0.00631789397, -0.00392474979, -0.00017111034,
          0.00832012948, 0.00810304563, 0.00363784051, 0.00271872454,
          -0.00043391544, -0.00610708073, -0.00721376296, -0.00481186481,
          -0.00481186481, 0.00570949586, 0.00594443781, 0.00567743741,
          0.00652225316, 0.00245910394, -0.0074528344, 0.00306268246,
          0.00540973153, 0.004309732, 0.000132421585, -0.00146798685,
          -0.00303216581, -0.00469924742, -0.000365456275, 0.00123711978,
          0.00136222003, 0.0037045877, 0.00283157709, -0.000545463234,
          -0.0058709872, -0.00509167882, -0.00460424554, -0.00114216376,
          0.00115782523, -0.00413880078, -0.00069530512, -0.000744785008,
          0.0022449668, 0.0016463527, 0.00398229109, 0.00502646202,
          0.00346067292, -0.00107838435, 0.000674934941, 0.00228605769,
          -0.000744785008, 0.00134625821, -0.00519809127, -0.00165789295,
          -0.00283217034, 0.00431441842, -1.98781017e-05, 0.00379375857,
          0.00617957441, 0.0062629045, 0.000448690989, -0.00649014069,
          -0.00799580198, -0.00420719013, -0.00152101787, 0.000401731668,
          0.00351711502, 0.00251898798, 0.00749833463, -0.00196663709,
          -0.00546959741, -0.00368376379, -0.00386794494,
          -0.000166452577, -0.00204511429, 0.00600900967, 0.00426351372,
          0.00351816509, -0.00262474781, -0.00603339681, -0.00435360335,
          -0.00633053621, 0.00218864321, 0.00308225933, 0.00405992474,
          -0.000172601736, 0.0016623931, -0.00335630262, -0.00348771596,
          -0.00209968886, -0.00478192605, 0.00148701423, 0.00415517669,
          0.00302049797, 0.00023823489, 0.00607767329, -0.00188118278,
          -0.00349000446, -0.00305680675, -0.004337925, -0.000408729422,
          -0.00350586814, 0.00721096806, 0.00752720702, 0.00676868111,
          0.00628128182, 0.00156320969, 0.00187608704, -0.000664240913,
          0.000664979685, 0.00377482222, -0.0032060321, -0.00148211583,
          0.00149023952, -0.00521502923, -0.00157545344, -0.00257629529,
          -0.00517930649, -0.00212001731, -0.00241499534, 0.00392283639,
          0.00643065525, 0.0064509376, 0.000714367721, -0.00539475074,
          -0.00132143067, -0.000615861674, 0.000285432499,
          0.000852415455, 0.00597182149, 0.00758280978, 0.00405605929,
          0.00572810182, 7.07435684e-05, 0.00149012962, -0.00502438797,
          -0.000949518988, 0.00520940172, -0.000851012708, 0.00214050571,
          0.00137621129, 0.00121514616, 0.00157482596, 0.000483254989,
          -0.00510008307, -0.00456097769, -0.00351093267, 0.0026434341,
          0.00769856665, 0.00126696704, -0.000146716906, -0.00455587357,
          -0.000763684453, -0.00195943331, -0.00213047396,
          -0.000854369893, -0.00460218592, -3.18493294e-05,
          -0.00409719953, -0.0046439725, -0.00280180061, -0.00367864245,
          -0.00406944985, -0.00611094525, -0.00654519768, -0.00335045531,
          -0.00117758906, 0.00333766453, 0.00405357219, 0.00423571281,
          0.00013467799, -0.00270059984, -0.00305828592, -0.0035888839,
          0.00029759726, 0.00498672994, 0.00523738889, 0.0051286309,
          0.00169382233, 0.00119565881, -0.000539363595, 0.00423394656,
          -0.00101354672, -0.00353126461, 0.00274935388, 0.00310228439,
          0.00104734185, -0.00546241179, -0.00508823525, -0.00462606503,
          -0.0049641449, -0.00673746271, 0.0019319047, 0.00559408078,
          0.00386304711, 0.00263068639, -0.00101693044, -0.00527636334,
          -0.00733306725, -0.00528688217, -0.00546338456, 0.00265263719,
          0.00436981581, 0.00462581916, 0.00637462083, 0.00995848794,
          0.0056205662, 0.00157333096, 0.00384678878, 0.00226521865,
          0.00143203454, 0.00223420723, 0.00164082309, -0.00520868413,
          -0.00536222197, 0.00415671803, 0.0024347112, 0.00591275841,
          0.00205344707, 0.00111015351, 0.00157758628, -0.000428548286,
          0.00424313359, 0.0077952384, 0.00195239973, -0.00112651603,
          -0.00121067988, -0.00214306149, -0.000980920508,
          -0.000679680204, -0.00169897603, -0.00915239658,
          -0.00536222197, -0.00288841547, 0.000765032484, 0.000203534146,
          -0.00068287435, -0.0063580391, -0.0047144969, -0.000562281115,
          0.00927775912, 0.00931047369, 0.00342284143, 0.00174979446,
          -0.000678090029, -0.00640325435, -0.00536454283,
          -0.00407952443, -0.00271354476, 0.00672756229, 0.00553654972,
          0.00598982675, 0.00730124442, 0.00281134946, -0.00164028932,
          -0.00612195954, -0.00199868926, 0.00496891653, 0.00702283112,
          0.00617921678, -0.00132024963, 0.00109381194, -0.000709674903,
          -0.00602926454, -0.0058587864, -0.00135441392, 0.00384272239,
          0.00439660344, 0.00429038377, -0.000141435055, 0.00174214307,
          -0.000537668006, -0.00421205582, -0.00422286382,
          -0.000993907335, -0.00309575698, 0.000906561792,
          0.000925191154, 0.00609774794, 0.00700464286, 0.00217714184,
          0.000860839966, 0.00157960341, 0.00494098105, 0.0021458487,
          0.00173480983, -0.00501206983, -0.000592427328,
          -0.000579659478, 0.00363146886, 0.000294053141, -0.00495580817,
          0.000604619272, -0.00177677535, -0.000374918454,
          -0.00063377124, 5.0663908e-05, 0.00184362079, -0.000304866961,
          -0.00443563191, 0.000308666, 0.0062377397, 0.0022256868,
          -0.00084155472, -0.00581072085, -0.00259920349,
          -0.000662950915, 0.000227272292, -0.00173913152, 0.00570842158,
          0.00534898834, 0.00508082099, -0.000575908693, -0.00807592459,
          -0.00185589993, -0.00402632356, 0.00247015711, 0.00278948992,
          0.000318167877, -0.00094353169, 0.000335421792, -0.00100939395,
          -0.00347120129, -0.000470870116, -0.00234083761,
          0.000868389907, 0.00391255179, 0.00513517903, 0.00393300503,
          0.00417293236, -0.00158871536, -0.00754810404, -0.00272715604,
          -0.00285679428, -0.000435675378, 0.00127021398, 0.00203645183,
          -0.000147642495, 0.00208043726, -0.00318081677, -0.00259099714,
          -0.00552483555, -0.00235936325, 0.00104241469, 0.00397558184,
          -0.000418441166, 0.00167336722, 0.00389099051, -0.0015131206,
          -0.00261153071, 0.00237916852, 0.00240665441, 0.00214923732,
          0.00457670679, 0.00496009644, 0.00687853619, 0.00492757233,
          -0.0034114765, -0.00706203748, -0.000337358535, 0.00126291323,
          0.000444988022, 0.00287799793, 0.00171821972, 0.00252079684,
          0.00306783803, -0.00307000731, -0.00261153071, -0.00399387348,
          0.000959265511, 0.00182980043, 0.00455182744, 0.00344907516,
          0.00191100861, 0.00193578249, -0.00673809228, -0.00865222421,
          -0.0035290583, -0.000648099987, -0.000525516225, 0.0019037819,
          0.000859546184, 0.00109557353, -0.000203298026, -0.00511440216,
          -0.00664933491, -0.00164382125, -0.000453413639,
          -0.00244913925, -0.001203986, -0.00344659341, 0.00357924006,
          0.0013919085, -0.00127728074, -0.00460263528, -0.0018134797,
          -0.00323082739, -0.00360848452, -0.00613966212, 0.0013919085,
          0.0013919085, 0.0042771115, -0.00178421044, -0.00576097891,
          -0.00393287372, -0.00298541179, -0.00208290736,
          -0.000880370149, 0.00183202489, 0.00415082276, 0.00558894174,
          0.00407184381, -0.00364221074, -0.000917805359,
          -0.000647805049, 0.00444276631, 0.0013919085, -0.00337635586,
          0.0034608175, 0.00299332826, 0.000353760901, -0.00814623013,
          -0.00319259288, -0.00450607436, -0.00456540473, -0.00563142588,
          0.000545494782, 0.00375866587, 0.00410669856, 0.00292009348,
          -0.00724708987, -0.00584317138, -0.0076833223, -0.0087561598,
          -0.00679202098, 0.00233401801, 0.00745104859, 0.00451858807,
          -2.32876755e-05, -0.00452261372, -0.0024621333, -0.00156262051,
          0.000557669497, 0.00220278162, 0.00220278162, 0.00707575306,
          0.00604215357, 0.00378782931, 0.000576385006, -0.00152301555,
          -0.00239641778, -0.0029019597, 0.00220278162, 0.000628822541,
          0.00053398282, 0.00070734066, 0.0021450154, 0.0053222836,
          -0.00166887068, -0.00237943116, -0.00358427828, -0.0034199825,
          0.00114025688, 0.000106417829, 0.000107282183, -0.00323134428,
          -0.00648504123, -0.00687221251, 0.00112345105, 0.000382702303,
          0.00142230617, 0.00684455177, 0.00877187867, 0.00866900291,
          0.000715030357, 0.00226828596, -0.000804566836, -0.00083783624,
          -0.00250553014, 0.00455391547, 0.00296071335, 0.0065427036,
          0.00498902705, 0.000117313568, -0.00648504123, -0.0113424724,
          -0.00278750015, -0.00260693138, 0.0031892308, 0.00102763146,
          0.00146538019, 0.00710730301, 0.00662262086, -8.97788486e-05,
          -0.000686595973, 0.00469673239, 0.00154498324, -0.00110272039,
          -0.00582592469, -0.00151566602, 0.0039049366, 0.00212365366,
          0.00118286721, -3.17902118e-06, 0.000789396057, -0.00462684128,
          -0.00471304404, 0.000490284292, 0.0029766662, 0.00459579471,
          0.00392506458, 0.000607342517, 0.00443125004, 0.00533118984,
          0.00228040339, -0.00261620083, -0.0046297363, -0.00197240454,
          0.00153081538, -0.00301613612, -0.00594869629, 0.00111750548,
          -0.00579407159, -0.00759768672, -0.00553351175,
          -0.000755233865, 0.00367032457, 0.00455738418, 0.00405570073,
          0.00126326189, 0.000800486014, 0.00123097096, -0.00134626776,
          -0.00355229061, 0.00359171699, 0.00834924728, 0.00191681471,
          0.00157285063, -0.00348278857, -0.00331934216, -0.00057825644,
          -0.00137101172, 2.56956573e-05, 0.00120591058, 0.00431833416,
          0.00404692674, 4.06192958e-05, -0.00694184797, -0.00174661831,
          -0.00333396881, -0.00732036913, -0.00341001363, 0.00126326189,
          0.00785309449, -0.000727571081, -0.00498973578, -0.00826266501,
          -0.0045633046, -0.00289483811, -0.00700687617, -0.00322423456,
          0.00486820983, 0.00638889801, 0.00238952017, -0.00275329454,
          -0.00486481795, -0.00646257587, -0.00335778785,
          -0.000942871033, 0.00243192515, 0.00704257144, 0.00525569171,
          0.00423187483, 9.92559508e-05, 0.00048354172, -0.00170689367,
          0.00146175467, 0.00541808689, 0.00717048952, 0.00209159544,
          0.00539089972, -0.00232095621, -0.00732460059, -0.0083891023,
          -0.00890404265, -0.00614866614, -0.0071420637, -0.00333826058,
          0.005848289, 0.00767156808, 0.00162047707, -0.00287341815,
          -0.0080883326, -0.00884007476, -0.00506119942, -0.00146060227,
          0.00384067534, 0.00175155315, 0.00107712101, 0.000491675222,
          -0.00594698591, -0.00504597742, -0.00618655654, -0.00683400733,
          -0.00144180108, 0.000208615063, 0.00432235189, 0.0041326466,
          0.00578602264, -0.00350924302, -0.00620286027, -0.0043134545,
          -0.00236428576, 0.00121230353, 0.00399823394, 0.00521942461,
          0.00474705733, 0.000891821983, -0.00284396647, -0.00741578825,
          -0.00933358166, -0.00894351862, -0.00510695064, 8.12616709e-05,
          0.00556741282, 0.00655231485, 0.00604173588, 0.000160727344,
          0.00382864336, 0.00480902242, -0.0027250729, 0.00555380154,
          0.0045849965, -0.00101065123, -0.00112596352, -0.00155371067,
          -0.00175737939, -0.00252407044, -0.00271978439, -0.00272463658,
          0.00013811556, -0.000665569329, -0.000526549877, 0.00344071956,
          0.00109624129, 0.00149027724, -0.0018035362, 0.000286070805,
          0.000518907851, 0.00268169842, -0.000526549877,
          -0.000526549877, -0.000903238368, -0.00136353576,
          -0.000590581796, 0.00245253346, 0.00420929445, -0.00206067599,
          0.00215598778, -0.000526549877, -0.000526549877,
          -0.00267473655, -0.00201819069, 0.00177715137, 0.000604403613,
          0.00566831464, 0.00170621753, 0.00237948075, -0.000828041986,
          0.000967237109, 0.000678173907, -0.000101721082,
          -0.000198518101, 0.00162566919, 0.000739259645, 0.00130790251,
          0.00387041224, -0.000201587041, -0.000201587041, 0.00235560606,
          -0.00115052192, 0.00071562716, 0.0047511817, 0.00361051317,
          0.0014303216, 0.00145134528, -0.000201587041, -0.000201587041,
          -0.00361073762, -0.00276829721, 0.000899296196, 0.00236962596,
          0.00161676784, -0.000310988253, 0.000521965267, -0.00102779875,
          -0.00274193333, -0.00831306539, -0.00706025911, -0.0034937982,
          -0.000159150935, 0.00195329776, -0.000398957462,
          -0.00030350039, -0.000201587041, 0.00150986307, 0.00773361465,
          0.00791656226, 0.00122971029, 0.00447250856, 0.00578239001,
          0.000206095618, -0.00148859608, 0.00150986307, 0.00150986307,
          0.00632272987, 0.00716995168, -0.000608671224, -0.0061678607,
          -0.00616223132, -0.00583058689, -0.00505541638, 0.00150986307,
          -0.0048400159, -0.0042004995, -0.00566262566, -0.00276516937,
          2.42411279e-05, 0.00358357863, -0.000234062434,
          -0.000827518699, -0.00193405536, -0.00254648295,
          -0.00325078587, -0.00312261283, -0.00220745173, 0.00199537585,
          0.000813074177, -0.00201247609, -0.00436223904, -0.00414491398,
          -0.00142672833, 0.00484478939, 0.00656141434, 0.00758018438,
          0.00412399461, 0.00831682421, 0.0050938474, 0.00245566829,
          -0.00404299563, -0.00250317925, 0.00200369745, 0.00180634542,
          0.000272642239, -0.00498131663, 0.00236281124, -0.00293139089,
          -0.00272173062, -0.00622030441, -0.00267678709, 0.0042116805,
          0.00382046122, 0.00522027723, 0.00177267788, 0.00457703322,
          0.00312872208, 0.00193632545, -0.00471943244, -0.00250317925,
          0.0030804947, 0.00262421579, -0.00252048858, -0.0056472444,
          -0.000644602813, -0.00203439523, -0.0004858264, -0.00758805452,
          0.000112757996, 0.00675125513, 0.00566296745, -0.00122115517,
          -0.00456133904, -0.00146661885, -0.00205865502, -0.00275080372,
          -0.00330349826, 0.000112757996, 0.00791002065, 0.00731642358,
          -0.00154886267, -0.00557416072, -0.00247886172, -0.00217314507,
          -0.00543572707, -0.00191549072, 0.000112757996, 0.00661449786,
          0.00330657652, -0.00651814882, -0.00861233938, -0.00336082,
          -0.00373268011, 0.00062177662, -0.000930310052, 0.000112757996,
          0.00743555371, 0.00451475987, -0.00334761548, -0.00818665698,
          -0.0041524251, -0.00577506563, -0.00297646713, -0.000153103101,
          0.00129096804, 0.00735949306, 0.00260613812, -0.00470272824,
          -0.00739436783, -0.00729157915, -0.00777833303, -0.0076462538,
          0.000251190242, 0.0082666548, 0.00875994191, 0.00452858675,
          -0.00193953456, -0.00407779543, -0.00580603722, -0.00555963581,
          -0.00214131828, 0.00806534104, 0.00129096804, 0.00682377303,
          0.00214904873, -0.0059666317, -0.00810045376, -0.00860343408,
          -0.00860343408, -0.00812531635, -0.00192462222, 0.00910762139,
          0.00918723736, 0.00482925074, -0.00479105953, -0.0079226559,
          -0.0067408802, -0.00708746817, -0.00309550134, 0.00828728639,
          0.00212185434, 0.00257841637, -0.000417000439, -0.00450565107,
          -0.0086570112, -0.00884567108, -0.00883787498, -0.00821823068,
          -0.0012575899, 0.00623994553, 0.0052820039, 0.00565593457,
          -0.00382165541, -0.00174071023, -0.00532494672, -0.00663534459,
          -0.00159718981, 0.00438889489, 0.0015976053, 0.00491421251,
          0.00443037646, -0.00711438106, -0.00369359879, -0.00848768558,
          -0.00728152087, -0.00484954659, -0.000473468099, 0.00386163173,
          0.00935970899, 0.00758547429, 0.00244622724, 0.00275765965,
          -0.00532077812, -0.00176568807, 0.00427193241, 0.00610458665,
          -0.00063363387, 0.000768382917, 0.00286603137, -0.000712051755,
          -0.00017202973, 9.49134774e-05, -0.00219463371, 0.00111056131,
          0.000953196257, -0.00561241806, -0.00278815674, 0.00485111214,
          0.00539943576, 0.00262501347, 0.00381918834, -0.000274492835,
          0.000388706219, -0.00539059332, 0.00280662742, 0.00488864491,
          0.00487721805, 0.000331785879, -0.00361570786, -0.00553462934,
          -0.00190085592, 0.00445184577, 0.00499987788, -0.00233237911,
          -0.00108076842, 0.00316955824, -0.00229458837, -0.00509167742,
          -0.00425818749, -0.00451816851, 0.00158284127, -0.000227751123,
          -0.00271438807, 0.000934843905, 0.00438830536, 0.00630592182,
          0.00471833628, 0.00153655966, -0.00179995177, -0.00238048821,
          -0.00429595541, -0.00337662455, -0.00182092213, -0.00147675863,
          0.00068547274, 0.000130750297, 0.00223668292, -0.00302124675,
          -0.00521624275, -0.000202026757, -0.000528422999,
          0.00380507135, 0.0002002775, 0.00289000757, 0.00144319853,
          0.00440355903, -0.00375586352, -0.000737537979,
          -0.000528422999, -0.000528422999, 0.00210837717, 0.00284900097,
          0.00828579068, 0.00534544094, 0.00269366894, -0.00567246508,
          -0.00557590323, -0.000528422999, -0.00568545703,
          -0.00317505002, -0.00355601218, -0.00230331509,
          -0.000862411922, 0.00139770203, -0.00234077428, -0.00320135709,
          -0.00247636624, 0.00155974668, -0.00274875457, -0.00352703827,
          -0.0027347994, 0.00275898236, 0.00103844528, -0.00164307584,
          -0.0025666994, 0.0015656763, 0.00193478505, 0.00335928402,
          0.000177409544, 0.00874503702, 0.00595098082, -0.00102690351,
          -0.00532735605, -0.00697364053, -0.00045263092, 0.00189383072,
          0.000131231398, -0.00555521622, 0.00189383072, 0.00561292795,
          -0.000428340514, -0.0017952458, -0.00806362368, 0.00189383072,
          -0.00195553293, 0.00734609924, 0.00276635378, 0.00668279547,
          0.00351118203, 0.00535531761, 0.00458574714, 0.00371144223,
          -0.00195553293, -0.00195553293, 0.0063979486, 0.00304886326,
          -0.0046618795, -0.00773389777, -0.0015929467, -0.00481171766,
          -0.0044244756, -0.00626435922, 0.00184400624, 0.00868351851,
          0.00601546746, 8.3160412e-06, 0.000140757198, 0.00174000673,
          0.00100250158, 0.00171947747, -0.00104466977, 0.00134024362,
          0.00663946383, -0.000588182244, -0.00696613546, -0.0113798063,
          -0.00198634667, -0.0037449454, -0.00330235227, -0.00458349334,
          0.00147434406, 0.00785436202, -0.000139085911, -0.00856823195,
          -0.00929751061, -0.00444422243, -0.00620470475, -0.00306899939,
          -0.000693187059, 0.00147434406, 0.0074034906, -0.00159469957,
          -0.00541726733, -0.00617275061, -0.00299709896, -0.00464590592,
          -0.00180458883, -0.00123465387, 0.00564797269, 0.00924609322,
          -0.00222311565, -0.0090677524, -0.00945134554, -0.00236447365,
          -0.00316009647, -0.00172650127, 0.00263580238, 0.00338702602,
          0.00944581721, 0.000977364834, -0.00491744047, -0.00594230695,
          -0.00102810143, -0.000663985789, 0.000232016508,
          -0.000656999764, 0.00211512926, 0.00514890393, -0.00283487281,
          -0.00888977386, -0.00796621013, -0.00765841408, -0.00929829478,
          -0.00532893883, -0.00362638454, 0.00900771748, 0.00989730656,
          0.00255416287, -0.00625658594, -0.00913965143, -0.00702507794,
          -0.00545772724, -0.00256029516, 0.0077443365, 0.00211512926,
          0.00706317089, 0.000307030452, -0.00656960066, -0.00823421963,
          -0.00359641807, -0.0010636939, -0.000630323368, -0.00297909114,
          0.00734697888, 0.00914170034, 0.00438333675, -0.0039343969,
          -0.00739644049, -0.00615597423, -0.00251482776, -0.00269775209,
          0.00555198733, -0.000120555087, 0.00353364297, 0.00351287611,
          -0.00434398092, -0.00193863374, -0.00808421709, -0.00532802986,
          -0.0019355237, -0.00104862265, 0.0024074032, 0.00591088552,
          0.00947087258, 0.00181921234, 0.00618288713, -0.00358438166,
          0.0024074032, 0.00456444779, 0.00433097826, -0.00213714619,
          0.000224626725, 0.000367898436, -0.00276770839, -0.00596815813,
          -0.00869548973, -0.00811859407, -0.00776707102, -0.0041667195,
          0.000837140775, -0.00467608962, 0.0016142606, -0.000976178679,
          -0.00120705576, -0.00331992283, -0.00273562362,
          -0.000287064526, 0.00392047269, 0.00230417703, 0.000759255723,
          0.00488623371, -0.000932354713, -0.00312265451, -0.00715398742,
          0.000426193204, 0.00524151092, 0.00683122128, 0.00436420925,
          0.00134599418, -0.00174812379, -0.00649278332, -0.00595043087,
          -0.00431511272, -0.000106714673, 0.005001368, 0.00590265356,
          0.000376434065, -0.00189546752, -0.000316479185, -0.0018873408,
          -0.00359934289, -0.00908034295, -0.0038653384, -0.000876567909,
          0.0063023637, 0.00696583092, 0.00184945774, -0.00173083704,
          -0.00326132099, -0.00696086977, -0.00737006031, -0.0026422292,
          0.000225512616, 0.00616425322, 0.00291101448, -0.00140038121,
          -0.00583881885, -0.00516044674, -0.00347260013, -0.00164402265,
          -0.00218973216, 0.000668301014, 0.00466768024, -0.00226220768,
          -0.00198580837, -0.000722651661, 0.00171368348,
          -0.000770691258, -0.0011864733, -0.000236073509,
          -0.00321994838, 0.0015154701, 0.00580128655, -0.000584335823,
          -0.00568330614, -0.00317557435, -0.00428940682, -0.00518099871,
          -0.00199177605, 0.00236320891, 0.00524583273, -0.00111439032,
          -0.00352604291, -0.00312917423, -0.00457538757, 0.00266209035,
          0.00490799639, 0.00476982072, 0.00271144416, 0.0015154701,
          0.00177595275, 0.00311469566, 0.000508575002, 0.00728615234,
          0.00425240025, -0.0013707563, -0.00394152757, -0.00659053819,
          -0.000742811128, 0.00118517107, 0.000905197638, -0.00413392205,
          0.00234520156, 0.00371924439, -0.00247215945, -0.0043860497,
          -0.00624300679, -0.00207618717, -0.00119933183, -0.00103108725,
          -0.00105512142, -0.00138447457, 0.00145789073, 0.00661800988,
          0.00331050088, 0.00330783334, 0.00108536112, -0.00123880315,
          -0.00146368018, -0.00556520931, -0.00110221503, -0.00126009446,
          -0.00135514583, -0.00649477215, -0.00270393677, -0.00313388603,
          0.00936962478, 0.00939858612, 0.00895821769, -0.00250972179,
          -0.00443642074, -0.000556581945, -0.000444960519,
          -0.000718764495, 0.00279494235, 0.00332698622, 0.002953663,
          -0.00491498644, -0.00924277026, -0.0100353165, -0.00281907083,
          -0.004740512, -0.00482083997, -0.00109420146, 0.00965406559,
          0.00954242516, 0.00709880702, -0.0044394522, -0.0076151276,
          -0.00140809698, -0.000574230857, -0.00069674605, 0.00556421652,
          0.00514853699, 0.000204480908, -0.00355092692, -0.00968145765,
          -0.0102469064, -0.0105894702, -0.00555593893, -0.00803949218,
          0.00532094389, 0.00469252793, 0.00499694236, -0.00550334388,
          -0.00945927389, -0.00974171143, -0.00229023327, -0.00394982845,
          -0.00326859136, 0.00379092875, 0.00774574606, 0.00952842552,
          0.00551847881, -0.00601062644, -0.0100921337, -0.00203308463,
          -0.000872310775, 0.000115911542, 0.00749264471, 0.00631696079,
          0.00272880006, -0.00606457191, -0.0104338881, -0.0102533773,
          -0.00672308961, -0.0041884589, -0.00626944285, 0.00543637015,
          0.00900099613, 0.00948062167, 0.00776048098, -0.00496050436,
          -0.0102096703, -0.00224184594, -0.000575242215, 1.01086571e-05,
          0.00802288577, 0.000972463517, 0.00747825811, 0.00248402241,
          -0.00792736746, -0.00990390219, -0.0085320184, -0.00272277556,
          -0.00143984542, 0.00108755345, 0.00438529113, 0.00805787649,
          0.00320806634, -0.00581233157, -0.0100948336, -0.0101702586,
          -0.00824071281, -0.00744745973, 0.00555182155, 0.00744231557,
          0.00923081115, 0.00643038005, -0.00298011512, -0.0098418314,
          -0.00607434893, -0.00280936225, -0.00133949833, 0.00254877959,
          0.00707879942, 0.0087472219, 0.00361812767, -0.00391315715,
          -0.00993044022, -0.00776105514, -0.00828783028, -0.00286587537,
          0.0040050284, 0.00551430648, 0.00573238451, 0.00294181821,
          -0.00197901623, -0.00599155389, -0.00851753075, -0.00892354921,
          -0.00890113227, 0.00566229271, 0.00446745241, 0.00670643896,
          0.00314668217, -0.00203349069, -0.00324351084, -0.00445057498,
          -0.00866126828, -0.00806929544, 0.00423764577, 0.00571753504,
          0.00578889996, 0.000922786421, -0.00293474784, -0.00845799968,
          -0.0066181235, -0.00896011014, -0.00774024474, 0.00248033181,
          0.00549990032, 0.00872008409, 0.00315946015, -0.000767346821,
          -0.00646485714, -0.00867751148, -0.00808347762, -0.00836561341,
          0.00291130901, 0.00732678175, 0.00797633361, 0.00365131069,
          -0.00238032639, -0.00313231372, -0.00764797255, -0.00729109114,
          -0.00357779511, 0.0039610737, 0.00677334517, 0.00722677633,
          0.00393641414, -0.00145177916, -0.00803430472, -0.00850170385,
          -0.0054723355, -0.00381277804, 0.00706896884, 0.00390878879,
          0.00730684353, 0.00348391198, -0.000852822035, -0.00538118416,
          -0.00876050908, -0.0074452823, -0.00264764298, -1.59218496e-06,
          0.00190925656, 0.00192087877, 0.000389719906, -0.00338105601,
          -0.00750657404, -0.00877020136, -0.0084299529, -0.00624672417,
          -0.000567456824, 0.00309849158, 0.00112986786, -0.000438462273,
          -0.00116916851, -0.00356674078, -0.00631671818, -0.00565256737,
          -0.000763127231, 0.00342953019, 0.000950430229, -0.00189386844,
          -0.0011055303, -0.00282727904, 0.0063089286, 0.00742812362,
          0.00911397673, 0.00623164559, 0.00527887233, -0.00224916474,
          -0.00215252792, -0.00219947007, -0.00350323343, -0.00695283338,
          -0.00841379724, -0.00829795841, -0.00778632797, -0.00483788038,
          -0.0021848178, -0.00317205815, -0.00358538143, -0.0022618717,
          0.00103895355, -0.000994791277, -0.00459968159, -0.00181209669,
          0.00365773076, -0.00431805523, -0.00465732161, -0.00429362943,
          -0.00678814109, 0.000230013291, 0.00256052637, 0.00203405996,
          0.00483956514, 0.0019368293, 0.000734649191, 0.000472350803,
          -0.00423992053, -0.0020994388, -0.00549824582, -0.0012612784,
          -0.00299633574, 0.00333592459, 0.00253938185, -0.00363180973,
          -0.00397268217, -0.000734357571, -0.00234007882,
          0.000277536194, -0.00138519017, -0.00302419974, 0.00165003678,
          0.0016985347, 0.00117688021, 0.0049001514, 0.00367081165,
          0.0014429572, 0.00245801616, -0.00314073451, -0.00213298993,
          0.00279956334, 0.00116365019, 0.00801929832, 0.00753264036,
          0.00700265169, -0.00221142103, -0.00559106423, -0.00197926932,
          -0.000359520462, -0.000682097278, 0.00366729707, 0.0046294746,
          0.00406992203, -0.00307517219, -0.00883196481, -0.00985374488,
          -0.00902596302, -0.00458716089, -0.00538636651, 0.00472340174,
          0.00777730858, 0.00571004348, 0.00291315396, -0.00240574614,
          -0.00932592712, -0.00563071761, -0.000637591933, -0.0016361461,
          -0.000472195417, 0.00558514427, 0.00367943849, -0.000635895471,
          -0.0082330443, -0.00983202085, -0.00969456695, -0.00252287416,
          -0.00300155533, -0.00163984206, 0.00846650079, 0.00731663126,
          -0.00541713601, -0.0101543143, -0.0104122628, -0.00592580857,
          -0.00404408574, -0.00439845957, 0.00708860951, 0.00621281425,
          0.00683212606, 0.00114236481, -0.00512192398, -0.010389246,
          -0.00221576006, -0.00126036163, 0.000333144853, 0.00786587037,
          0.00862636324, 0.0086299805, 0.000697974872, -0.00965095218,
          -0.0102499146, -0.00522516202, -0.00234862254, -0.00276815379,
          0.00110855221, 0.00173227186, 0.0010778202, -0.00263261027,
          -0.00565675693, -0.00986817759, -0.00487849442, -0.0038961235,
          -0.000154844704, 0.00344801089, 0.000773926848, 0.00220655161,
          0.000256596541, -0.00453390554, -0.0098588774, -0.0031499397,
          -0.00208990811, 0.000326196779, 0.00494674547, 0.00776061974,
          0.00684744492, 0.00206205528, -0.00242633978, -0.00882804208,
          -0.00365533284, -0.00385610433, 0.000803541159, 0.00779748801,
          0.000773926848, -0.00184540427, -0.00671496335, -0.00753139937,
          -0.00981473271, -0.00511785317, -0.00475389743, 0.00164616411,
          0.000773926848, 0.00794361345, 0.00677933777, 0.00116972672,
          -0.00622704253, -0.00989540573, -0.00532027474, -0.00180444506,
          0.000621728424, 0.00854851119, 0.00720022758, 0.00361807318,
          -0.00177154865, -0.00185413437, -0.00768211856, -0.00618721591,
          -0.0073579452, -0.00142240082, 0.00110276206, 0.00768011203,
          0.00749614323, 0.00574973505, 0.00183271966, -0.00494894199,
          -0.00904584769, -0.00786616094, -0.00263851462, 0.00544075808,
          0.00729806256, 0.00796317868, -0.000894846744, -0.00667700265,
          -0.00823673047, -0.00954826921, -0.00861871615, -0.00289297709,
          0.00158915424, 0.00750596076, 0.00926539674, 0.00733399764,
          0.00362235634, -0.0038005088, -0.009106596, -0.00862551015,
          -0.00449880539, 0.00386478286, 0.00569138443, 0.00549156172,
          0.00586580392, 0.000281586166, -0.0020058339, -0.00597910304,
          -0.00478839269, -0.000485947734, 0.00268486631, 0.00345434924,
          0.00311415526, 0.00114114757, -0.00255849143, -0.00247773994,
          -0.00542002358, -0.00706518954, -0.00322235259, 0.00147210888,
          0.00756265735, 0.00761696557, 0.00805213116, 0.00343638822,
          -0.00356120593, -0.00905668177, -0.00728427526, -0.00329558062,
          0.00176823337, 0.00582116609, 0.00294723664, 0.00549161667,
          0.000666407635, -0.00629559346, -0.00912787765, -0.00769664766,
          -0.0053882855, 0.0023990043, 0.000654652598, 0.00130374951,
          0.000621969055, -0.00160655554, -0.00428736582, -0.00664607389,
          -0.00814510975, -0.00553831784, -0.00179961429, 0.00115638901,
          0.00114568346, 0.00173792674, 0.00481746858, 0.000586188107,
          -0.00501195015, -0.00823059306, -0.00586318457, -0.00176580029,
          0.00642504776, 0.00870258082, 0.00840651058, 0.00238181325,
          -0.00447090343, -0.00753571838, -0.00760564953, -0.00565585075,
          -0.00122097554, 0.00301916082, 0.00572380517, 0.00748249143,
          0.00616462901, -0.00179461483, -0.00595426699, -0.00766972126,
          -0.00679977331, -0.000108474072, -0.000276384846,
          -0.00186055049, 0.00225017755, -0.000177149152, 0.00240673171,
          0.000948081375, -0.00262912665, -0.00314011285,
          -0.000624071166, 0.00741766719, 0.00589712569, 0.00749056553,
          0.00039755358, 0.00522250123, 0.00234975177, -0.000174629415,
          -0.000624863605, 0.00380728464, 0.00156668632, -0.00130693521,
          0.00172246085, -0.00392385665, -0.00429040194, -0.00542893447,
          -0.00803286396, -0.00808057562, -0.00265531451, 0.00729008904,
          0.00259358971, 0.00662033912, -0.0039000588, -0.00407375768,
          -0.00482670357, -0.00781095261, -0.00728567364, 0.00139896362,
          0.0104548009, 0.00935342815, 0.00448951265, -0.00584593089,
          -0.0100825876, -0.00423216913, -0.00169852644, -0.000913512777,
          0.0028358819, 0.00943241641, 0.00884909835, 0.00125641015,
          -0.0100200502, -0.0110267801, -0.00719946669, -0.00254641473,
          -0.000778394984, 0.00144826388, 0.0108457645, 0.00916683767,
          0.00581411878, -0.00812606514, -0.00978003535, -0.00403890293,
          -0.00405286858, -0.00309543218, 0.00420067785, 0.0109444223,
          0.00834137108, -0.00449600257, -0.010421358, -0.0105549935,
          -0.00650542788, -0.00527928583, -0.00187974342, 0.00564669166,
          0.00873526093, 0.00931060221, 0.000377513352, -0.013680486,
          -0.0143310316, -0.00588486344, -0.00153645768, -0.00109950709,
          0.0035861677, 0.00595891988, 0.00495325448, 0.00142573519,
          -0.00409936765, -0.00799461082, -0.00391235389, -0.00226552389,
          -0.000106638174, 0.00430739392, 0.0100113945, 0.00872927904,
          -0.00501516741, -0.0144161861, -0.0138725862, -0.00400492735,
          -0.00222677644, 0.000298572413, 0.00809596013, 0.00912268832,
          0.00942486245, 0.00643917033, -0.00218784274, -0.00474651344,
          -0.00147899427, -0.000426240498, 0.00207811152, 0.00964160357,
          0.00313436799, -0.00120772514, 0.000426480343, -0.00136000651,
          -0.00777759496, -0.00312341121, -0.00289423391, 0.000589627249,
          0.000566509843, 0.00848680269, 0.00630036229, 0.00243255449,
          -0.00768479472, -0.0113872476, -0.00457440922, 0.000169764462,
          0.00099991553, 0.00444251532, 0.00778559083, 0.00795183703,
          0.00782970339, -0.00394545402, -0.00672469055, -0.00152102637,
          -0.00106735877, 0.000513285806, 0.00539517961, 0.00455475366,
          0.00368420617, 0.00348260719, -0.00669818185, -0.00556111429,
          -0.00529002957, -0.00100269122, -0.00108707696, 0.000490364211,
          0.00442218781, 0.00617752131, 0.0016183242, -0.00447832048,
          -0.0102879442, -0.00754411146, -0.00294757355, -0.0008746112,
          -0.000927519228, 0.00563759636, 0.0112623256, 0.00850274041,
          0.0046440172, -0.0073629031, -0.00789875444, -0.00552316569,
          -0.000936535886, 0.00124573475, 0.0056526456, 0.00923665427,
          0.0075917202, -0.00778299849, -0.00804222003, -0.0109155262,
          -0.00494242832, -0.00087298936, -0.000356043631, 0.010942935,
          0.0108995084, 0.0084915394, 0.00327156112, -0.00812337361,
          -0.00900240242, -0.00812053401, -0.00029788207, 0.00510215061,
          0.0044345567, 0.00684466539, 0.00579186575, 0.00159065798,
          -0.00687380973, -0.00890845526, -0.00634397101, -0.001498917,
          0.000726091093, 0.00818852615, 0.005563905, 0.00781526975,
          0.000309844356, -0.00835653953, -0.00957699213, -0.00915645435,
          -0.00275494577, 0.00153702486, 0.00698102219, 0.00685404986,
          0.00857665297, 0.00235180231, -0.00753844203, -0.00801534113,
          -0.00674268324, -0.00223996281, 0.00171233458, 0.00541517138,
          0.00438162312, 0.00855479017, 0.000638781989, -0.00702372938,
          -0.00938942097, -0.00944370497, -0.0037556733, 3.28593633e-05,
          0.00896236207, 0.00822042488, 0.00710699335, 0.00190268969,
          -0.00477887737, -0.00801042188, -0.00745024346, -0.00391131314,
          0.000541849178, 0.00696091913, 0.00660104258, 0.00489494856,
          0.00126071938, -0.00451356638, -0.00780542986, -0.00789857935,
          -0.00601015938, 0.00020723528, 0.00701036071, 0.00763222994,
          0.00818467885, -0.00180890958, -0.00835235044, -0.0089570703,
          -0.00848708395, -0.00440875161, 7.26300641e-05, 0.00138651743,
          0.00485474896, 0.00222857809, -0.00453099096, -0.00843125023,
          -0.00901320763, -0.00889623165, -0.00349448016,
          -0.000541381829, 6.54619944e-05, 0.00208047498, 0.00176337466,
          -0.00139864406, -0.00530733494, -0.0082712844, -0.00842629746,
          -0.00747498963, -0.00141760788, 0.00553819491, 0.00694910018,
          0.0080518527, 0.00150134647, 0.00353766605, -0.00301508931,
          -0.00648649596, -0.00703938585, 0.00346032623, -0.00147834211,
          -0.00181736506, -0.00384347746, -0.00303963781, -0.00683625508,
          -0.00818881765, -0.00867487304, -0.00463692378, -0.00165484066,
          0.00570908794, 0.00114228821, 0.00349167152, -0.00152898533,
          0.00274505559, 0.00274505559, 0.00070767611, -0.000397591328,
          0.00647591241 ]
   uncompressed_sv_total: 2
   uncompressed_support_vectors:
      - [ 0.150091663, 0.0787845701, 0.164986759, 0.166056216,
          0.149590373, 0.10344629, 0.125843197, 0.093428202, 0.120430402,
          0.183250785, 0.105122931, 0.126139626, 0.181459308, 0.18756631,
          0.141371176, 0.140133068, 0.131225035, 0.196084514,
          0.185272232, 0.140455201, 0.146817982, 0.188437715,
          0.181431681, 0.204194903, 0.210945755, 0.156511471,
          0.210945755, 0.210945755, 0.151604384, 0.140724584,
          0.158351198, 0.210945755, 0.210945755, 0.169396132,
          0.210945755, 0.210945755, 0.15862225, 0.083223097,
          0.0601875633, 0.0693861619, 0.0842342153, 0.0808592439,
          0.0897238627, 0.153902635, 0.188812926, 0.186193898,
          0.0535077639, 0.0881424099, 0.235398248, 0.235398248,
          0.208678976, 0.0515617318, 0.115399212, 0.186195195,
          0.235398248, 0.0909042656, 0.0800782219, 0.0854216516,
          0.218151659, 0.215173498, 0.142887503, 0.235398248,
          0.235398248, 0.235398248, 0.0541385189, 0.0774480551,
          0.17094548, 0.235398248, 0.235398248, 0.128615752, 0.216627002,
          0.235398248, 0.0343818441, 0.0211068448, 0.0584275573,
          0.251548797, 0.324945778, 0.171311229, 0.0314586386,
          0.0193267893, 0.0544323362, 0.0415831655, 0.0404022411,
          0.155244902, 0.324945778, 0.324945778, 0.229147047,
          0.114900902, 0.043337699, 0.0916899294, 0.0950116441,
          0.0399768203, 0.0350226872, 0.112262428, 0.189482048,
          0.17655471, 0.0688091964, 0.0457023755, 0.105262756,
          0.18041271, 0.0903301314, 0.0943923965, 0.182282642,
          0.324945778, 0.177540034, 0.210444912, 0.115235031,
          0.295937181, 0.0241092239, 0.0235162992, 0.0982101262,
          0.384316772, 0.384316772, 0.154198706, 0.0957016796,
          0.025577629, 0.0478066616, 0.00841245241, 0.00661393255,
          0.0105459271, 0.120429471, 0.384316772, 0.115826108,
          0.0194082037, 0.0135181714, 0.0102767907, 0.153035238,
          0.0701717958, 0.10414058, 0.130323485, 0.384316772,
          0.0926630795, 0.125478983, 0.0797408, 0.268610567,
          0.0352920741, 0.0268533956, 0.0416912548, 0.0720852166,
          0.384316772, 0.113969631, 0.0118550342, 0.0117177833,
          0.0318705328, 0.0690368712, 0.0410043746, 0.118833236,
          0.216656581, 0.308671236, 0.243455142, 0.0930565745,
          0.0870159417, 0.0805477425, 0.0783451051, 0.0969128087,
          0.202407375, 0.169227242, 0.308671236, 0.170469552,
          0.106636882, 0.102113932, 0.0717021376, 0.110588819,
          0.147753075, 0.248081401, 0.260049641, 0.308671236,
          0.247866124, 0.0506514907, 0.0640759245, 0.0988508388,
          0.0568917207, 0.107696213, 0.151066393, 0.123632096,
          0.308671236, 0.0778608024, 0.132660866, 0.0702100396,
          0.0502578206, 0.0679508969, 0.0570375919, 0.135122299,
          0.111294523, 0.305406868, 0.0843914524, 0.0709882975,
          0.0768614784, 0.100632921, 0.0831429884, 0.0771512464,
          0.305406868, 0.305406868, 0.249352172, 0.0313913561,
          0.0534344241, 0.0512529537, 0.126957998, 0.0336674377,
          0.118131109, 0.291941971, 0.282858878, 0.274956584,
          0.0536257923, 0.105742693, 0.0505158491, 0.0320847929,
          0.0156919956, 0.174912915, 0.305406868, 0.305406868,
          0.242248714, 0.0207480751, 0.042821873, 0.0250871982,
          0.0160249099, 0.0667357221, 0.122708648, 0.340665609,
          0.340665609, 0.340665609, 0.0632008836, 0.0708217621,
          0.0325481184, 0.0847631618, 0.0692823157, 0.0626419187,
          0.150218993, 0.145594031, 0.200875521, 0.0624277741,
          0.0795858651, 0.0184438024, 0.0744286254, 0.0264864955,
          0.173849821, 0.340665609, 0.340665609, 0.297210306,
          0.0614950322, 0.0864110366, 0.0141116269, 0.0273657944,
          0.152037397, 0.10579136, 0.205060869, 0.0844060779,
          0.175494105, 0.0587827973, 0.0720269158, 0.00752122328,
          0.127204433, 0.0606261119, 0.0410502851, 0.0837171674,
          0.0789364576, 0.1968458, 0.110997297, 0.0710053146,
          0.0523902848, 0.120906197, 0.0966379642, 0.102292694,
          0.0384823531, 0.103699148, 0.167644203, 0.0530958958,
          0.0586761311, 0.0623826608, 0.053595569, 0.254566878,
          0.102251157, 0.185308203, 0.221502155, 0.25574556, 0.25574556,
          0.210297704, 0.167671964, 0.215013325, 0.25574556, 0.25574556,
          0.133081362, 0.25574556, 0.25574556, 0.11141365, 0.219489232,
          0.21513173, 0.1948217, 0.170735583, 0.178642616, 0.027964985,
          0.0766007528, 0.121326104, 0.0505591184, 0.0456031002,
          0.0590310916, 0.0811045617, 0.215577945, 0.114158951,
          0.0169702731, 0.0219883099, 0.0593541265, 0.0568541177,
          0.0307349451, 0.101436071, 0.258454412, 0.312268376,
          0.312268376, 0.0697778687, 0.219018236, 0.19503437,
          0.0557149947, 0.145642698, 0.134485781, 0.237744123,
          0.312268376, 0.312268376, 0.0665110424, 0.0285691991,
          0.0708313137, 0.0474789888, 0.0514584295, 0.249327675,
          0.312268376, 0.0964325517, 0.0264185332, 0.0136557249,
          0.0140132485, 0.0423319973, 0.0972686782, 0.0589410998,
          0.118522622, 0.232121587, 0.19072111, 0.0421482213,
          0.0304057747, 0.0269192606, 0.22194241, 0.108298048,
          0.12067429, 0.0924928188, 0.283666939, 0.283666939,
          0.0720705017, 0.0662380457, 0.0330391973, 0.0570506118,
          0.0984568819, 0.138114646, 0.283666939, 0.283666939,
          0.25081715, 0.0874583647, 0.144409969, 0.0574148633,
          0.272481918, 0.24209857, 0.164801732, 0.283666939, 0.283666939,
          0.243764699, 0.0413828418, 0.0559903234, 0.0895195156,
          0.299381137, 0.0714523867, 0.0732737929, 0.0504510254,
          0.299381137, 0.0464022271, 0.0489600673, 0.112904646,
          0.19780609, 0.299381137, 0.0668825507, 0.00859521609,
          0.0103607625, 0.0394607, 0.233480975, 0.0528496578,
          0.108805515, 0.229625851, 0.299381137, 0.15506272,
          0.0637024716, 0.175559118, 0.299381137, 0.0825460851,
          0.074950397, 0.135643885, 0.299381137, 0.299381137,
          0.0177115221, 0.0263947379, 0.0565435253, 0.0763627291,
          0.0737339705, 0.139986187, 0.25031352, 0.25031352, 0.25031352,
          0.0860667974, 0.0596027933, 0.0540000647, 0.091700308,
          0.0611597188, 0.0518881492, 0.086412847, 0.0823748261,
          0.159028292, 0.0549519286, 0.117457867, 0.103522755,
          0.0923965871, 0.224163935, 0.156304955, 0.235280156,
          0.25031352, 0.25031352, 0.0354994126, 0.111412801, 0.132024556,
          0.25031352, 0.208124861, 0.0312579833, 0.235788375, 0.25031352,
          0.230756029, 0.0629053637, 0.127359822, 0.180066079,
          0.25031352, 0.0406820811, 0.0718310103, 0.196279585,
          0.299518257, 0.155864, 0.0420999415, 0.0591346063,
          0.0489315428, 0.0333788097, 0.0382315814, 0.108565547,
          0.299518257, 0.299518257, 0.197082803, 0.0340960659,
          0.0180878229, 0.00772813894, 0.0129233534, 0.111460499,
          0.0753113776, 0.299518257, 0.299518257, 0.227564529,
          0.0584823415, 0.0507882088, 0.0643102229, 0.0727851167,
          0.259392679, 0.23674424, 0.299518257, 0.299518257, 0.15093495,
          0.0399209484, 0.0207010321, 0.00591516634, 0.057669457,
          0.114301063, 0.111553431, 0.257922262, 0.257922262,
          0.201669767, 0.055696439, 0.0401765704, 0.00931638759,
          0.065622516, 0.221394539, 0.168155268, 0.188663259,
          0.0835850388, 0.115043223, 0.0531026796, 0.0403631553,
          0.0121702766, 0.152150422, 0.257922262, 0.257922262,
          0.257922262, 0.127520248, 0.107978843, 0.023342425,
          0.0424711332, 0.0585273765, 0.216554433, 0.257922262,
          0.257922262, 0.257922262, 0.222833991, 0.176385254,
          0.0356276147, 0.0570965037, 0.103674121, 0.229026645,
          0.221724615, 0.119080685, 0.177137092, 0.162380964,
          0.221724615, 0.135586962, 0.145105883, 0.101315595,
          0.172578096, 0.210841179, 0.200974435, 0.15009892, 0.20380418,
          0.221724615, 0.179390058, 0.207140476, 0.160614759, 0.11863476,
          0.201618135, 0.0638948157, 0.0958409086, 0.0593659915,
          0.176678747, 0.112930991, 0.19325003, 0.136380285, 0.214934751,
          0.0904610977, 0.0543073379, 0.131554797, 0.0910780355,
          0.221724615, 0.221724615, 0.221724615, 0.185828522,
          0.112741381, 0.240503296, 0.246217415, 0.0742182508,
          0.124054067, 0.200531051, 0.160689667, 0.15219602, 0.127303123,
          0.140575737, 0.246217415, 0.160277143, 0.115976714,
          0.0547556244, 0.132578641, 0.112490691, 0.103374377,
          0.246217415, 0.246217415, 0.0688705593, 0.0303284843,
          0.11342527, 0.0977238566, 0.246217415, 0.246217415,
          0.240468457, 0.164822936, 0.0880407169, 0.225713491,
          0.0280858744, 0.0645322055, 0.0515947491, 0.177418962,
          0.116536543, 0.127687648, 0.213244483, 0.246217415,
          0.244143888, 0.0485950261, 0.0686723143, 0.0606804825,
          0.0809699893, 0.092755951, 0.14124915, 0.244143888,
          0.244143888, 0.20598495, 0.103975713, 0.180094838, 0.120212764,
          0.170310691, 0.1497017, 0.157350346, 0.244143888, 0.244143888,
          0.183403283, 0.0238743294, 0.0385095775, 0.094045341,
          0.159712896, 0.067057766, 0.117372155, 0.153991908,
          0.244143888, 0.160911918, 0.1188244, 0.201782972, 0.244143888,
          0.244143888, 0.10827481, 0.118687585, 0.142703548, 0.244143888,
          0.169669256, 0.110194668, 0.250110567, 0.244654357,
          0.255226195, 0.120385252, 0.0726675689, 0.255226195,
          0.255226195, 0.0560488254, 0.0588498861, 0.0999627411,
          0.243078604, 0.255226195, 0.0423583165, 0.0266152844,
          0.0733398646, 0.0813766494, 0.121714436, 0.173794284,
          0.255226195, 0.255226195, 0.255226195, 0.126677483,
          0.0566647649, 0.153225929, 0.255226195, 0.0284238886,
          0.0611344948, 0.152799815, 0.229029715, 0.149960384,
          0.0722944364, 0.0388253108, 0.0441960841, 0.0611966327,
          0.123744078, 0.116310552, 0.11493697, 0.227064192, 0.293702066,
          0.0182854105, 0.0691307262, 0.0633565709, 0.146228984,
          0.108029149, 0.0641138554, 0.293702066, 0.293702066,
          0.212381825, 0.0246557258, 0.0495896079, 0.0692914799,
          0.171860784, 0.0419502109, 0.0914808586, 0.148745701,
          0.215857267, 0.293702066, 0.114162512, 0.15329729,
          0.0567575879, 0.0480155349, 0.0383806042, 0.182628617,
          0.293702066, 0.293702066, 0.285140306, 0.0793920904,
          0.0751048028, 0.0618920699, 0.0653804466, 0.0643978342,
          0.066748403, 0.333406508, 0.333406508, 0.225554511,
          0.0576117039, 0.0269676074, 0.0270051453, 0.0466040634,
          0.208273798, 0.153232306, 0.333406508, 0.311976075,
          0.102340162, 0.0560850985, 0.0479036346, 0.0115711801,
          0.0758785233, 0.0420751534, 0.155203104, 0.333406508,
          0.333406508, 0.230883032, 0.0707032681, 0.0247390438,
          0.0305676702, 0.0396495163, 0.0937209055, 0.0649412647,
          0.168411359, 0.154723212, 0.142935172, 0.0662968904,
          0.0589117855, 0.0182729792, 0.0850678831, 0.273234069,
          0.206475228, 0.17467685, 0.0383859463, 0.0638918355,
          0.0181457456, 0.0832861513, 0.0583952405, 0.196549654,
          0.273234069, 0.273234069, 0.273234069, 0.154991657,
          0.166329652, 0.00535093714, 0.0569165275, 0.106636718,
          0.15742512, 0.223873928, 0.0933555663, 0.134077385,
          0.0720367283, 0.111604273, 0.0384458341, 0.0701501667,
          0.0404181518, 0.203169659, 0.273234069, 0.273234069,
          0.273234069, 0.173347816, 0.186237097, 0.0572116561,
          0.0511396602, 0.0906981826, 0.181490302, 0.170135066,
          0.0476420745, 0.016210869, 0.0199397821, 0.0671271384,
          0.0990667641, 0.182002917, 0.184649482, 0.234705091,
          0.174327388, 0.0535132363, 0.150278911, 0.176897764,
          0.234705091, 0.234705091, 0.234705091, 0.172992632,
          0.209295794, 0.120094046, 0.0652056858, 0.0389016233,
          0.101969354, 0.184082136, 0.224469557, 0.234705091,
          0.182297125, 0.165841296, 0.138371393, 0.0744658858,
          0.0662135929, 0.144529805, 0.234705091, 0.209790424,
          0.228444681, 0.208774552, 0.165869355, 0.0943312719,
          0.0256628189, 0.0970599502, 0.134227395, 0.247158483,
          0.132092044, 0.134097323, 0.0869973898, 0.12466073,
          0.177302659, 0.0169842914, 0.035119649, 0.0662764981,
          0.216926262, 0.0219247825, 0.206359997, 0.191207513,
          0.219382644, 0.204006538, 0.0369555838, 0.0428535342,
          0.0921379849, 0.247158483, 0.0731261149, 0.179033116,
          0.204321101, 0.247158483, 0.247158483, 0.167660609,
          0.135019094, 0.141259238, 0.243917733, 0.0630492046,
          0.247158483, 0.247158483, 0.247158483, 0.13075316,
          0.0236217827, 0.0312306676, 0.0990733206, 0.144040614,
          0.0321884416, 0.133631676, 0.163186714, 0.228167593,
          0.124465235, 0.145819083, 0.104611143, 0.223453, 0.228452086,
          0.128021449, 0.0556115471, 0.124665767, 0.228452086,
          0.207266688, 0.16612801, 0.133413851, 0.182796285, 0.228452086,
          0.0807575807, 0.18104665, 0.180872515, 0.228452086,
          0.228452086, 0.228452086, 0.100743644, 0.208112746,
          0.228452086, 0.129202843, 0.0629477203, 0.181277856,
          0.228452086, 0.120921031, 0.241725951, 0.259348094,
          0.264122307, 0.264122307, 0.198762909, 0.0524960309,
          0.0800472721, 0.264122307, 0.00656702323, 0.0332790688,
          0.114638321, 0.220970765, 0.158858925, 0.0554094873,
          0.0354246683, 0.0188711509, 0.030325342, 0.22191076,
          0.264122307, 0.14662005, 0.264122307, 0.264122307, 0.21715869,
          0.0624926686, 0.171500608, 0.264122307, 0.0185706336,
          0.0252168104, 0.0786649138, 0.143246964, 0.200540364,
          0.0704074576, 0.0347965956, 0.0130063295, 0.0251814872,
          0.00915304385, 0.0429179743, 0.226882905, 0.279675424,
          0.236787841, 0.0823893994, 0.085759297, 0.0325039402,
          0.00919250026, 0.0221242663, 0.140219808, 0.279675424,
          0.279675424, 0.231185079, 0.0493883416, 0.0412043482,
          0.0323467515, 0.0168159734, 0.0421751663, 0.163528562,
          0.279675424, 0.279675424, 0.279675424, 0.0622441024,
          0.0334269702, 0.0197036304, 0.0164213572, 0.0702282861,
          0.274144799, 0.279675424, 0.279675424, 0.220377564,
          0.0314455554, 0.00923637487, 0.0360955223, 0.0494005382,
          0.110126451, 0.24081026, 0.263498604, 0.263498604, 0.263498604,
          0.0228096042, 0.0304448325, 0.0383849479, 0.0805267319,
          0.181287229, 0.149640515, 0.182796776, 0.182463571,
          0.157041743, 0.0323564485, 0.051795125, 0.0175910722,
          0.139364377, 0.124564357, 0.204106599, 0.263498604,
          0.191925675, 0.22999315, 0.0343038626, 0.0421279483,
          0.0731168985, 0.119156487, 0.201693565, 0.263498604,
          0.263498604, 0.263498604, 0.173309371, 0.0397082157,
          0.0951835364, 0.0614519678, 0.0848629847, 0.121609062,
          0.137653679, 0.243279234, 0.173911899, 0.0865783691,
          0.0375730917, 0.0237718392, 0.0161806643, 0.0888119861,
          0.161850914, 0.273768723, 0.273768723, 0.246335253,
          0.130362883, 0.0883292407, 0.0424807668, 0.067356512,
          0.114507414, 0.144712374, 0.273768723, 0.273768723,
          0.273768723, 0.110713892, 0.0205046516, 0.0289092828,
          0.0200176686, 0.0349481814, 0.188372582, 0.273768723,
          0.273768723, 0.273768723, 0.177428365, 0.0459140316,
          0.0481403917, 0.045557674, 0.127317995, 0.104135327,
          0.0610051863, 0.0534304939, 0.0930164009, 0.229057938,
          0.229057938, 0.229057938, 0.155661166, 0.14751476, 0.123234622,
          0.0476328582, 0.0292541962, 0.0907362327, 0.200946286,
          0.172989115, 0.229057938, 0.208088025, 0.130901068,
          0.109811552, 0.0413681827, 0.0929287896, 0.229057938,
          0.229057938, 0.229057938, 0.229057938, 0.140416771,
          0.137424976, 0.177546114, 0.0690900683, 0.132294208,
          0.229057938, 0.229057938, 0.203769043, 0.162751034,
          0.182853475, 0.165636986, 0.234324306, 0.0314763449,
          0.0211642832, 0.0438019224, 0.110345796, 0.0679005608,
          0.153484806, 0.201814428, 0.244833156, 0.244833156,
          0.228792921, 0.137623757, 0.119964436, 0.191611126,
          0.234089866, 0.202277929, 0.167289242, 0.244833156,
          0.123206921, 0.0672356412, 0.0725792721, 0.0691747963,
          0.137025028, 0.0804789439, 0.0586003624, 0.0748896673,
          0.117346898, 0.145992517, 0.0992657468, 0.108083896,
          0.20641087, 0.244833156, 0.235670283, 0.187570453, 0.244833156,
          0.24167788, 0.13526921, 0.183936417, 0.108303189, 0.161623061,
          0.244300872, 0.16744335, 0.126955628, 0.107065037, 0.175259754,
          0.199606836, 0.153409213, 0.0941353142, 0.172526434,
          0.244300872, 0.148800999, 0.0738214329, 0.180025488,
          0.170642316, 0.125533625, 0.047312364, 0.0673653111,
          0.183734164, 0.244300872, 0.139743999, 0.134741113,
          0.244300872, 0.187521949, 0.150776997, 0.0717171431,
          0.120967478, 0.151536867, 0.244300872, 0.185746208,
          0.0791672319, 0.191409275, 0.244300872, 0.229589611,
          0.176633164, 0.12236274, 0.200428858, 0.253216833, 0.253216833,
          0.100929081, 0.223339781, 0.220973074, 0.0199198164,
          0.0227807071, 0.0828978643, 0.189537823, 0.208747089,
          0.0968485922, 0.0414446294, 0.0148419896, 0.0189364199,
          0.145408407, 0.0972888693, 0.190296069, 0.253216833,
          0.253216833, 0.253216833, 0.113279648, 0.172086179,
          0.253216833, 0.0326164626, 0.0416243151, 0.125120699,
          0.253216833, 0.253216833, 0.0904804841, 0.0354661904,
          0.0134285288, 0.0161285717, 0.071353212, 0.237680048,
          0.248228744, 0.248228744, 0.248228744, 0.0653495193,
          0.0473673567, 0.0511920117, 0.0295771137, 0.0907748714,
          0.248228744, 0.248228744, 0.174649507, 0.230383128,
          0.0644783005, 0.0290255602, 0.0785596222, 0.0660728365,
          0.161610499, 0.211974233, 0.248228744, 0.248228744,
          0.248228744, 0.0504349396, 0.0499297976, 0.0387107097,
          0.0740061402, 0.134715095, 0.218354926, 0.248228744,
          0.238021731, 0.207710162, 0.0696159005, 0.0447104797,
          0.0545739196, 0.0741694495, 0.0954749808, 0.139323115,
          0.0986174196, 0.0799377486, 0.21538654, 0.101662666,
          0.0536054112, 0.0756765753, 0.0620822832, 0.240946114,
          0.242617011, 0.242617011, 0.242617011, 0.212057218,
          0.0576352552, 0.0675162971, 0.0786383003, 0.0306085628,
          0.200855359, 0.242617011, 0.216748685, 0.242617011,
          0.240649968, 0.0864835083, 0.0539265648, 0.0482222438,
          0.057899598, 0.242617011, 0.242617011, 0.242617011,
          0.242617011, 0.242617011, 0.0382318199, 0.0489626303,
          0.0542080551, 0.0948666707, 0.216369748, 0.246098161,
          0.246098161, 0.246098161, 0.110109322, 0.0100936322,
          0.0263091382, 0.0336128362, 0.0456571393, 0.163259283,
          0.23276113, 0.246098161, 0.244694173, 0.156835109,
          0.0248939283, 0.0690515786, 0.0355747044, 0.108738035,
          0.239204556, 0.246098161, 0.211353853, 0.102948494,
          0.201909974, 0.0185229778, 0.0410562791, 0.0651978925,
          0.111102007, 0.17799142, 0.203996733, 0.211473092, 0.246098161,
          0.246098161, 0.050429035, 0.068639718, 0.0727489591,
          0.156266421, 0.111014776, 0.0384758897, 0.063644141,
          0.229293838, 0.222566962, 0.138338372, 0.0820573121,
          0.119993471, 0.120392069, 0.199956119, 0.136407003,
          0.119204767, 0.232657894, 0.235518143, 0.170989051,
          0.128838703, 0.230205789, 0.235518143, 0.0701722279,
          0.0311651714, 0.012656752, 0.101308659, 0.221329868,
          0.0989154428, 0.0434409194, 0.0703582168, 0.0857067704,
          0.235518143, 0.167562604, 0.0705786794, 0.235518143,
          0.235518143, 0.235518143, 0.18468383, 0.228984356, 0.235518143,
          0.0990778059, 0.103583902, 0.0736419931, 0.0622230247,
          0.119306818, 0.0879294053, 0.080454573, 0.110473059,
          0.172087252, 0.135856822, 0.108080953, 0.138695762,
          0.203901678, 0.188736767, 0.144930944, 0.105378434,
          0.214857683, 0.220740676, 0.204589143, 0.130579188,
          0.0922558829, 0.109332219, 0.18094863, 0.16078341, 0.221856102,
          0.171348631, 0.221856102, 0.221856102, 0.189324081, 0.18719767,
          0.221856102, 0.196994349, 0.221856102, 0.221856102,
          0.150172591, 0.221856102, 0.150677547, 0.0568663999,
          0.139535517, 0.226484895, 0.226484895, 0.100256704,
          0.0808763057, 0.223333016, 0.190637484, 0.103978239,
          0.0347964391, 0.0993324891, 0.222146884, 0.226484895,
          0.193897098, 0.0607767813, 0.183038652, 0.226484895,
          0.14396362, 0.108121775, 0.15330638, 0.226484895, 0.226484895,
          0.151819199, 0.0965272114, 0.0829090104, 0.20042178,
          0.101065047, 0.0683173761, 0.0875745341, 0.226484895,
          0.226484895, 0.200901538, 0.10087242, 0.189333797, 0.221039832,
          0.0996205658, 0.0533208698, 0.168140545, 0.25238964,
          0.25238964, 0.25238964, 0.103174582, 0.237644851, 0.25238964,
          0.0714440495, 0.0582891591, 0.181163564, 0.233091041,
          0.188766837, 0.065630652, 0.026489336, 0.0304338597,
          0.0291034169, 0.168027461, 0.136392295, 0.180415377,
          0.25238964, 0.25238964, 0.25238964, 0.143372834, 0.25238964,
          0.25238964, 0.113968596, 0.0996424556, 0.152080119,
          0.129934326, 0.0744252577, 0.0566600189, 0.0384223014,
          0.0409292802, 0.0563396029, 0.182825044, 0.186647117,
          0.255250931, 0.233377695, 0.150783554, 0.0512556508,
          0.0531220287, 0.042634245, 0.0897432193, 0.188162073,
          0.255250931, 0.255250931, 0.255250931, 0.10059043,
          0.0360206254, 0.0378111415, 0.0329688042, 0.0861515775,
          0.255250931, 0.196027026, 0.255250931, 0.184651211,
          0.125904724, 0.0309066903, 0.0959304944, 0.0642173588,
          0.16278486, 0.231241286, 0.255250931, 0.255250931, 0.116074741,
          0.13529551, 0.0432730764, 0.127097189, 0.0677376613,
          0.147176191, 0.240051866, 0.240051866, 0.240051866,
          0.240051866, 0.147315443, 0.0239754561, 0.0419280343,
          0.045237653, 0.102418661, 0.191279426, 0.22494632, 0.123130076,
          0.177375242, 0.240051866, 0.060443826, 0.130160868,
          0.063392967, 0.120304406, 0.207770124, 0.240051866,
          0.140686765, 0.118259288, 0.22401537, 0.0779228657,
          0.122572042, 0.123035088, 0.149650902, 0.148257762,
          0.100445196, 0.0863196701, 0.160264969, 0.240051866,
          0.197818056, 0.231897548, 0.152583838, 0.132676467,
          0.139567494, 0.142737657, 0.0702600852, 0.0701329559,
          0.251764089, 0.0674695, 0.0786333978, 0.0856635794,
          0.104539767, 0.157511801, 0.106677718, 0.130596921,
          0.345891356, 0.345891356, 0.10847158, 0.0529899336,
          0.0922926217, 0.142159492, 0.193487689, 0.09327586,
          0.0570897572, 0.0948555171, 0.148273766, 0.121156462,
          0.124743171, 0.103368759, 0.144388437, 0.224965721,
          0.0714422092, 0.0715824813, 0.345891356, 0.345891356,
          0.18873471, 0.0654372051, 0.0879506171, 0.16944012,
          0.0282278247, 0.0108176759, 0.00307880202, 0.0541309528,
          0.224097177, 0.119209409, 0.0470358618, 0.0534938015,
          0.0173853394, 0.280923337, 0.109938584, 0.127415925,
          0.270365804, 0.280923337, 0.280923337, 0.280923337,
          0.280923337, 0.201587394, 0.0139844781, 0.00560042914,
          0.00307112653, 0.00512269093, 0.0508330353, 0.0410800427,
          0.0342422388, 0.0375965349, 0.0126385745, 0.119986303,
          0.0817390829, 0.152949095, 0.126951844, 0.261425376,
          0.280923337, 0.280923337, 0.280923337, 0.117989436,
          0.189603716, 0.0893711075, 0.106178515, 0.116546378,
          0.114975922, 0.163691595, 0.224850804, 0.0988127515,
          0.176731795, 0.170336634, 0.178794906, 0.136711851,
          0.224850804, 0.155522183, 0.205292106, 0.207860827,
          0.0510421433, 0.198238835, 0.134871915, 0.0976378247,
          0.156930298, 0.14909324, 0.115354083, 0.191491351, 0.224850804,
          0.159140959, 0.131625175, 0.186820388, 0.157468796,
          0.142338678, 0.224850804, 0.161819488, 0.224850804,
          0.224850804, 0.138125256, 0.14510718, 0.119740203, 0.16727072,
          0.12823543, 0.236307502, 0.236307502, 0.162253603,
          0.0897161812, 0.0473668724, 0.129998475, 0.134854734,
          0.0819212943, 0.0803997442, 0.236307502, 0.236307502,
          0.179561153, 0.0939907059, 0.199006781, 0.183315009,
          0.16643481, 0.147342458, 0.0885629281, 0.221636072,
          0.236307502, 0.236307502, 0.113664381, 0.0939687118,
          0.125455588, 0.220345646, 0.0995909721, 0.0923510268,
          0.236307502, 0.236307502, 0.121512927, 0.0632508695,
          0.135177985, 0.212318927, 0.239826784, 0.181767106, 0.19041124,
          0.249442056, 0.249442056, 0.249442056, 0.143413797,
          0.249442056, 0.249442056, 0.162075236, 0.165556699,
          0.115556881, 0.111832932, 0.0528574847, 0.0515971184,
          0.0442820042, 0.0239930116, 0.0898944512, 0.249442056,
          0.163294867, 0.19268851, 0.249442056, 0.249442056, 0.158318773,
          0.0896505937, 0.161695644, 0.249442056, 0.0946639106,
          0.0856811181, 0.120221414, 0.152842596, 0.0957977772,
          0.0413051136, 0.0424354225, 0.0176187083, 0.0661144108,
          0.221316695, 0.221316695, 0.221316695, 0.221316695,
          0.108391851, 0.0515155233, 0.127443016, 0.0624243766,
          0.221316695, 0.184297964, 0.131408811, 0.174792632,
          0.126948118, 0.180201739, 0.119412884, 0.221316695,
          0.0974621773, 0.19214043, 0.163369924, 0.138273537,
          0.221316695, 0.221316695, 0.153120756, 0.083058767,
          0.173936546, 0.0612305999, 0.165329158, 0.221316695,
          0.133398741, 0.144349873, 0.173035517, 0.141997293,
          0.0771388263, 0.221316695, 0.104086794, 0.198425665,
          0.156025723, 0.0889779627, 0.107489109, 0.143005162,
          0.235901594, 0.135703981, 0.198124379, 0.144464776,
          0.125340804, 0.18931751, 0.128271788, 0.144012719, 0.170307562,
          0.235901594, 0.226480737, 0.195236087, 0.140487209,
          0.143289492, 0.235901594, 0.171939164, 0.0876533836,
          0.0945203453, 0.152955547, 0.0529501624, 0.206071123,
          0.132963598, 0.222359717, 0.235901594, 0.151162609,
          0.0971870944, 0.0586002283, 0.225372449, 0.129489303,
          0.16328755, 0.131305724, 0.235901594, 0.133097321,
          0.0729155615, 0.0723223463, 0.0591060258, 0.111250147,
          0.0903374255, 0.0866314918, 0.0766903237, 0.1287622,
          0.120273389, 0.0387308896, 0.0529546253, 0.334898502,
          0.491353273, 0.13249968, 0.0985059664, 0.0679743588,
          0.129288748, 0.135654151, 0.0573939048, 0.0577667169,
          0.0251744352, 0.102737561, 0.0765523389, 0.102642104,
          0.0975723267, 0.168466523, 0.0687063858, 0.0345501117,
          0.0539189726, 0.294189364, 0.491353273, 0.105141476,
          0.184991196, 0.0858390853, 0.109187685, 0.00875409599,
          0.00717442809, 0.00254525663, 0.00346449832, 0.0193870496,
          0.0121736787, 0.0123690255, 0.0129930954, 0.0147126447,
          0.0564141385, 0.0299420357, 0.0662736297, 0.0503102466,
          0.16141133, 0.149283394, 0.29030326, 0.121866025, 0.0906846151,
          0.349761248, 0.259845465, 0.173045024, 0.00219571288,
          0.00794129353, 0.00159949088, 0.0176261533, 0.0751968846,
          0.311342657, 0.349761248, 0.349761248, 0.349761248,
          0.0712915584, 0.0650733337, 0.0637689754, 0.0497802533,
          0.0253712311, 0.349761248, 0.0904929042, 0.0746696964,
          0.103783473, 0.081659466, 0.138334945, 0.198138058,
          0.237561777, 0.105394349, 0.0914612487, 0.149857491,
          0.119799875, 0.142905921, 0.122263074, 0.223784611,
          0.237561777, 0.237561777, 0.129641995, 0.124238014,
          0.237561777, 0.233026206, 0.237561777, 0.0906584635,
          0.0847486183, 0.112449884, 0.0848137215, 0.0456593335,
          0.152274564, 0.199985936, 0.157344222, 0.237561777,
          0.127996653, 0.19706741, 0.222998351, 0.229115203, 0.103659436,
          0.218375608, 0.108344071, 0.0801318511, 0.0779263452,
          0.0883548856, 0.248255402, 0.248255402, 0.151083022,
          0.0766968057, 0.129921898, 0.129631698, 0.177016884,
          0.0452281237, 0.196592659, 0.248255402, 0.146251723,
          0.15805839, 0.0611778423, 0.176437244, 0.0846462026,
          0.130844384, 0.150571585, 0.175396457, 0.248255402,
          0.174170271, 0.215224594, 0.0556384176, 0.162108734,
          0.116753839, 0.248255402, 0.19968845, 0.205095172, 0.248255402,
          0.172390223, 0.225129962, 0.0795685053, 0.118205436,
          0.14705576, 0.22069414, 0.0661412552, 0.266226798, 0.266226798,
          0.183496118, 0.177821428, 0.0721698403, 0.202593654,
          0.0361462533, 0.0277763344, 0.0478523038, 0.0607523434,
          0.103845119, 0.0665914491, 0.0568261854, 0.0209313221,
          0.0363537073, 0.256381005, 0.266226798, 0.183437094,
          0.266226798, 0.266226798, 0.266226798, 0.266226798,
          0.162382185, 0.195661619, 0.0835905001, 0.0567988604,
          0.0562620461, 0.108764492, 0.266226798, 0.128456607,
          0.0565048568, 0.0368674323, 0.0742724016, 0.116117626,
          0.0734794736, 0.166822255, 0.122568175, 0.211075202,
          0.131501123, 0.202729702, 0.0931271315, 0.127563626,
          0.240641385, 0.146253824, 0.132855192, 0.135885924,
          0.0975452438, 0.0537077598, 0.179289326, 0.143832535,
          0.240641385, 0.121525154, 0.0704157278, 0.240641385,
          0.203051984, 0.240641385, 0.0808483139, 0.100888319,
          0.0998848304, 0.153749436, 0.240641385, 0.159439012,
          0.240641385, 0.240641385, 0.146148115, 0.106738776,
          0.144309476, 0.177989185, 0.240641385, 0.232846931,
          0.139446199, 0.0826976523, 0.087934114, 0.105048507,
          0.0405752845, 0.100567959, 0.112878509, 0.232846931,
          0.232846931, 0.114627086, 0.10799288, 0.11087139, 0.201780736,
          0.106879652, 0.0981063843, 0.0828732029, 0.232846931,
          0.232846931, 0.109632321, 0.133074015, 0.148928687,
          0.232846931, 0.147263736, 0.137373149, 0.141158804,
          0.232846931, 0.165100351, 0.0821890086, 0.134638533,
          0.176984683, 0.232846931, 0.181860089, 0.226467997,
